tree
version=v4
num_class=1
num_tree_per_iteration=1
label_index=0
max_feature_idx=14
objective=lambdarank
feature_names=User_Rating_Count User_Avg User_Std Movie_Rating_Count Movie_Avg Movie_Std Release_Year UserKNN_RMSE_Score UserKNN_Hit_Score ItemKNN_RMSE_Score ItemKNN_Hit_Score ContentKNN_RMSE_Score ContentKNN_Hit_Score SVD_Score AutoRec_Score
feature_infos=[4:2165] [1.625:5] [0:2.1739171730242179] [22:3217] [0.76411960132890366:4.7721123829344432] [0.46223173172360715:1.9956443598961746] [1902:2026] [-5.2001846422876508:2.8712902849286386] [-9.5507825449595671:3.1754690454349412] [-11.907425249361832:3.5309386145929498] [-13.870878056179325:3.4641015814555818] [-9.1064478752135809:4.7166626863299763] [-1.3502265729711338:6.7823297943327416] [-6.956717622771313:5.4082188002864555] [-5.4304556935607264:2.4968780897675575]
tree_sizes=3536 3485 3493 3504 3500 3509 3491 3515 3508 3498 3517 3526 3510 3512 3501 3521 3510 3510 3511 3508 3512 3497 3521 3520 3509 3508 3513 3520 3517 3508 3516 3532 3511 3535 3496 3521 3517 3521 3506 3533 3527 3524 3498 3501 3516 3511 3521 3515 3520 3511 3511 3511 3532 3511 3512 3520 3519 3522 3513 3533 3525 3526 3518 3535 3507 3511 3505 3520 3522 3502 3497 3523 3502 3506 3504 3510 3508 3501 3494 3501 3520 3523 3502 3499 3508 3513 3507 3479 3508 3517 3507 3491 3511 3486 3485 3478 3504 3511 3505 3517 3522 3490 3507 3533 3502 3481 3479 3500 3490 3485 3496 3513 3503 3480 3485 3495 3485 3487 3513 3472 3477 3485 3515 3467 3488 3492 3507 3472 3522 3504 3486 3490 3455 3503 3490 3515 3498 3474 3509 3454 3506 3486 3490 3497 3484 3491 3481 3503 3499 3481

Tree=0
num_leaves=31
num_cat=0
split_feature=14 14 14 13 13 14 14 14 13 13 14 14 13 13 13 13 13 11 13 14 14 11 13 10 4 4 4 5 11 4
split_gain=6358.58 911.712 562.901 169.031 119.913 98.8088 70.3886 43.469 35.516 34.7962 28.7977 26.3671 22.6437 19.9876 14.1832 11.4324 9.90249 9.44185 9.41825 8.79614 8.46113 8.26987 8.0065 7.87317 7.76348 7.71195 7.17989 7.28883 6.85425 6.71427
threshold=0.14920724820629469 0.79814328736509876 -0.5185308464905144 0.31911528772723591 -0.021727750072928046 1.112815608595594 -1.2067012789125489 0.47426052008728864 0.68851053941767359 -0.11929705617645872 -0.12911679174452914 0.46550735369105645 0.68851053941767359 0.33661977000929305 0.96847835784360037 -0.021727750072928046 -0.021727750072928046 0.031955016265170812 -0.80586564612107481 -1.7874568150013788 1.415398167901057 0.30811463890082869 0.4937730149299962 0.36288261000533373 4.1449944382647397 4.2388042313248526 3.778580132333258 1.0096038459283589 -0.47236816363937084 4.0738542263570077
decision_type=2 2 2 2 2 2 2 2 2 2 2 2 2 2 2 2 2 2 2 2 2 2 2 2 2 2 2 2 2 2
left_child=2 3 6 7 10 8 19 15 16 17 23 29 -7 24 -13 21 -3 -8 -9 -1 -14 -2 -21 -4 -6 -18 27 -11 -12 -5
right_child=1 5 4 11 13 12 9 18 -10 26 28 14 20 -15 -16 -17 25 -19 -20 22 -22 -23 -24 -25 -26 -27 -28 -29 -30 -31
leaf_value=-0.090893127936197748 -0.01924244276150543 0.024395495124708233 -0.05271274449848045 0.015533366163673663 -0.018368429020305568 0.062408673496263473 -0.073261912970321585 -0.035251079082970899 0.06191095628072063 -0.051413917765145381 -0.040261694074101309 0.033557608036947788 0.075394961809873845 0.006910329513358889 0.050059156217489277 0.0013109391761243201 0.040101257528389007 -0.0615891709803323 0.016405550702100063 -0.081285537341994632 0.085961826709889638 -0.0023028368914494533 -0.021784232631998468 -0.039668094915340714 0.020957821339599073 0.054741795515495996 -0.007865439055226766 -0.016529220078220622 -0.025847348451354158 0.032234064075881974
leaf_weight=392.27975431614323 176.58943867997732 62.888289477908984 380.87987824529409 209.33532312023453 276.43440096953418 255.14163502008887 434.66654341144022 9.0102092913584766 537.99030546366703 64.668214601406362 124.16191992815584 432.6207587744575 484.48153067112435 131.71120040939422 186.2883459450677 316.55557675892487 230.11036010005046 288.04469806677662 426.63061818876304 412.4519352458301 311.08044068631716 121.70681707106996 5.7322367066517463 166.12117913670954 13.146461531170642 147.67049259447958 17.178427588543855 19.485441048862413 245.62564979260787 84.465761486120755
leaf_count=20970 9661 2564 25681 11079 16783 9130 27088 350 21461 3500 7701 22136 17734 6226 7677 18608 11265 16311 21313 23270 10068 6202 179 7956 586 5978 738 878 14089 3642
internal_value=-2.68889e-11 0.0412217 -0.055366 0.0169293 -0.0313185 0.0647221 -0.0750524 0.00325389 0.0532904 -0.0647623 -0.041465 0.0326692 0.07537 -0.00923819 0.0385245 -0.00530745 0.042766 -0.0686096 0.0153372 -0.085515 0.0795268 -0.012331 -0.0804699 -0.0487512 -0.0165831 0.0458241 -0.0373232 -0.0433365 -0.0306872 0.0203347
internal_weight=6965.15 3992.57 2972.59 1963.2 1338.08 2029.36 1634.51 1050.49 978.659 824.043 916.789 912.71 1050.7 421.292 618.909 614.852 440.669 722.711 435.641 810.464 795.562 298.296 418.184 547.001 289.581 377.781 101.332 84.1537 369.788 293.801
internal_count=350824 178868 171956 100668 79022 78200 92934 56134 41268 48515 55427 44534 36932 23595 29813 34471 19807 43399 21663 44419 27802 15863 23449 33637 17369 17243 5116 4378 21790 14721
is_linear=0
shrinkage=0.05


Tree=1
num_leaves=31
num_cat=0
split_feature=7 13 7 4 13 0 13 13 0 0 4 4 6 7 13 0 7 3 7 3 13 7 13 0 7 13 4 4 4 4
split_gain=13036 1276.4 1267.52 273.667 224.308 207.102 201.148 189.67 115.97 113.545 99.1933 97.5165 79.8119 66.1529 63.5034 60.4283 58.2897 56.4173 42.9498 34.9487 45.2281 33.0835 30.8965 29.7033 29.3621 28.7367 28.7008 26.5993 22.5694 20.2109
threshold=0.7216405852163722 0.10115157953527219 1.1561622083285277 3.7462446805512504 0.64794824328052525 415.50000000000006 1.9284876808746081 0.68851053941767359 288.50000000000006 520.50000000000011 4.5055727554179574 4.0465739121989133 2013.5000000000002 0.99911991914194631 0.77480347318158482 193.50000000000003 -0.38433201025220121 744.50000000000011 0.29592123872915915 752.50000000000011 1.2601989004142207 1.3331245229744393 0.68851053941767359 204.50000000000003 0.3216731218359114 0.9885542368790089 4.4568058211502484 4.2803779414177141 4.1584446555319685 4.356070704742355
decision_type=2 2 2 2 2 2 2 2 2 2 2 2 2 2 2 2 2 2 2 2 2 2 2 2 2 2 2 2 2 2
left_child=1 3 7 15 5 11 10 9 18 17 14 24 -6 19 -4 16 -1 26 -5 -9 -21 -16 -12 -19 -3 -14 -2 -13 -15 -8
right_child=2 4 6 8 12 -7 29 13 -10 -11 22 27 25 28 21 -17 -18 23 -20 20 -22 -23 -24 -25 -26 -27 -28 -29 -30 -31
leaf_value=-0.077870027477681403 0.016399252247686347 -0.043498195831230886 0.024360741119183675 -0.048780842551232537 0.010728979727133107 -0.062944319432374385 0.058817666354971522 0.033127775746781697 -0.070829927100901927 -0.03026037133107521 0.041505905219453923 -0.011015570805572548 -0.030526220424162281 0.01990858396684092 0.038307346465000523 -0.085124339688723516 -0.050411265474370782 0.0088711752148805719 -0.024118875127531997 0.0030865684397781996 0.025062344152280664 0.052093785820445306 0.061563826095861342 -0.012851053473210208 -0.024817218870316377 -0.0074873639199445272 0.050946765800591626 0.022239615557791876 0.037568360727618912 0.071643903226179126
leaf_weight=621.01134937955067 314.60784736764617 461.52469767746516 438.04157128938823 444.68927226273809 386.6648165594961 535.2196720262873 397.39363631804008 260.00223177410953 467.14345244228025 239.12249886814971 228.72512875165557 295.26464472780935 270.83934864513867 229.29496074709459 817.00682568940101 1840.3897774948273 280.60164160374552 339.55797701328993 292.77045255759731 549.13675590467756 408.15331641075318 931.06573539163219 1195.3720887586824 293.32049617939629 386.4869357557036 270.5563016335218 74.318687219172716 75.506982220802456 857.58179282125639 1352.2200014831906
leaf_count=10928 4148 9656 5112 8178 6696 36281 2388 3413 29350 12634 2446 4552 6839 2496 6974 129363 4286 2465 4525 8555 4927 5317 5946 6312 6908 4981 596 786 8067 5699
internal_value=-2.63228e-12 -0.0531149 0.0394492 -0.0712022 -0.0264998 -0.0370178 0.0548168 0.0163454 -0.0513375 0.000755393 0.0480737 -0.0256324 -0.00662127 0.0248768 0.0413844 -0.079929 -0.0693243 0.00801369 -0.0389901 0.0168715 0.0124562 0.0456503 0.0583423 -0.00119644 -0.0349842 -0.0190128 0.0230008 -0.00424321 0.0338427 0.0687307
internal_weight=15553.6 6628.67 8924.92 3946.61 2682.06 1754 5359.82 3565.1 1204.6 1260.93 3610.21 1218.78 928.06 2304.17 2186.11 2742 901.613 1021.81 737.46 1217.29 957.29 1748.07 1424.1 632.878 848.012 541.396 388.927 370.772 1086.88 1749.61
internal_count=350824 263329 87495 186630 76699 58183 33882 53613 42053 26155 25795 21902 18516 27458 17403 144577 15214 13521 12703 16895 13482 12291 8392 8777 16564 11820 4744 5338 10563 8087
is_linear=0
shrinkage=0.05


Tree=2
num_leaves=31
num_cat=0
split_feature=4 13 13 4 4 4 13 13 0 0 0 13 0 4 13 4 13 13 0 6 13 13 13 0 13 3 3 0 3 6
split_gain=9738.6 1560.62 1097.57 381.92 231.605 220.266 185.571 136.913 124.081 101.421 80.8842 80.414 78.3151 58.9404 54.398 48.2852 44.699 43.9996 37.783 37.6717 35.0023 34.874 26.8422 23.0484 22.3605 21.5511 18.0793 17.3083 17.0518 16.4931
threshold=4.0989661151565686 0.32819892639114379 0.68851053941767359 4.356070704742355 3.7462446805512504 4.3059245045551036 1.3545550136730145 1.9284876808746081 324.50000000000006 640.50000000000011 520.50000000000011 1.5389106843711384 201.50000000000003 4.5055727554179574 0.072245473318034686 4.5055727554179574 0.64794824328052525 -0.27545695208200444 359.50000000000006 2013.5000000000002 0.11557174639581995 -0.16951311391356463 0.68851053941767359 672.50000000000011 2.1924537536256659 1358.5000000000002 970.50000000000011 107.50000000000001 1184.5000000000002 2017.5000000000002
decision_type=2 2 2 2 2 2 2 2 2 2 2 2 2 2 2 2 2 2 2 2 2 2 2 2 2 2 2 2 2 2
left_child=1 4 5 11 12 10 9 13 21 16 14 25 17 -5 -2 20 18 -1 -3 -18 -7 27 -11 -22 -8 -4 -15 -6 -16 -13
right_child=2 6 3 7 8 15 24 -9 -10 22 -12 29 -14 26 28 -17 19 -19 -20 -21 23 -23 -24 -25 -26 -27 -28 -29 -30 -31
leaf_value=-0.0698646534674736 -0.027946230632241567 -0.015279759904182268 0.025532165674020387 0.038678279773180238 -0.033476626412669887 -0.0078848153887751717 0.016834686577495216 0.065346891581562608 -0.068326581309394285 -0.068707652739217237 -0.049097748758260971 0.050063368523773591 -0.079760232778490828 0.063131927696767703 0.0063127364685214172 0.0347913485789723 0.013055378585749261 -0.047210713372918628 -0.04556736898948216 -0.012126507703851127 0.02213126875181597 -0.026772601906833834 -0.032759936175711574 -0.023668371244472925 0.04906775876838388 0.012064983553207323 0.050301960974773297 -0.057961436761321053 -0.012354588288268027 0.03494092170808704
leaf_weight=635.83488774369471 248.07999548135558 419.68447746755555 744.70501488348236 1141.6452426410688 116.95620942232199 173.03868159337435 278.63074529812729 1732.6921686420683 462.34527788351261 100.12131933108321 144.58462718667579 295.46867075914633 1896.1479445027435 399.30435243877582 374.22633384668734 334.89121215997147 226.53523759660311 323.33480831445195 136.44597994873766 431.24369064980419 386.36121060838923 457.76885229349136 107.8874020397343 29.572501982125686 66.680748939048499 494.21473202863126 879.08164218859747 188.51703648315743 181.74599272513296 462.57002461375669
leaf_count=12213 5906 7195 11844 10694 1127 3342 4278 6100 36718 11319 12083 2748 139529 2112 6769 3737 3313 5726 7554 8174 5463 9378 6929 1903 710 6830 4561 5379 3168 4022
internal_value=4.30688e-11 -0.0490696 0.0357715 0.0459768 -0.0660669 0.00225526 -0.00981937 0.0546175 -0.0478857 -0.0178039 -0.0146681 0.0280083 -0.0738707 0.0469355 -0.00847694 0.0196324 -0.0122762 -0.062228 -0.0227108 -0.00345401 0.011013 -0.0355034 -0.0500627 0.018875 0.023059 0.02016 0.0543094 -0.048587 0.000210434 0.0408354
internal_weight=13870.3 5848.13 8022.18 6149.68 4080.91 1872.5 1767.23 4152.72 1225.59 1421.92 948.637 1996.96 2855.32 2420.03 804.052 923.864 1213.91 959.17 556.13 657.779 588.972 763.242 208.009 415.934 345.311 1238.92 1278.39 305.473 555.972 758.039
internal_count=350824 259542 91282 48911 210070 42371 49472 23467 52602 44484 27926 25444 157468 17367 15843 14445 26236 17939 14749 11487 10708 15884 18248 7366 4988 18674 6673 6506 9937 6770
is_linear=0
shrinkage=0.05


Tree=3
num_leaves=31
num_cat=0
split_feature=14 14 13 14 13 14 0 13 0 0 0 13 13 4 7 13 14 14 4 9 13 13 14 0 9 4 9 9 0 14
split_gain=9381.46 908.847 821.983 236.12 165.327 163.061 128.296 102.293 89.57 74.882 60.9939 51.7441 51.3245 47.7405 37.1524 33.1497 29.1014 25.819 25.8183 25.549 22.3216 20.719 17.1268 16.8666 16.461 16.3044 15.6306 15.2117 15.106 14.9479
threshold=0.69852066849984529 1.099883182267392 0.2452318214484773 0.10110631204382323 0.85573225203795678 1.3467078606867866 280.50000000000006 0.7598075253363018 415.50000000000006 528.50000000000011 201.50000000000003 1.422942003503084 1.6847437097417781 4.3003277377551168 -0.38433201025220121 0.64794824328052525 0.45723633150917903 0.91200597441810571 4.369512233309675 0.66847070822411847 2.1924537536256659 2.1924537536256659 0.37867874976449734 837.50000000000011 0.89932825957894569 4.3059245045551036 0.18498794588465714 1.2360127623936554 1040.5000000000002 0.27008293262560717
decision_type=2 2 2 2 2 2 2 2 2 2 2 2 2 2 2 2 2 2 2 2 2 2 2 2 2 2 2 2 2 2
left_child=2 4 3 10 9 11 22 8 16 17 14 18 19 24 -1 25 -4 26 -3 -7 -15 23 -5 29 28 -11 -2 -20 -6 -9
right_child=1 5 7 6 13 12 -8 21 -10 15 -12 -13 -14 20 -16 -17 -18 -19 27 -21 -22 -23 -24 -25 -26 -27 -28 -29 -30 -31
leaf_value=-0.068186302981292454 -0.013765431730191886 0.022910715826788566 -0.030742075098915713 -0.035952932237795859 0.010278003620790486 0.038761129824921553 -0.062572413709678601 -0.02011221115806424 -0.057088414435470226 -0.054560949252497597 -0.07668667372428864 0.046785276317077865 0.062617434430226021 0.028951697243423693 -0.047164687005333862 -0.0037729789152206152 -0.0097675371700132047 0.013720423753269359 0.033423436037390557 0.054079959238604119 0.051733937711475775 0.029782109525174672 -0.018528655845913913 -0.046493882655689406 0.023765252904449734 -0.015092959493128839 0.0035902800987908084 0.051131499540437997 -0.044962112650394466 -0.0016641165533254326
leaf_weight=606.04395528009627 190.71183239144739 527.70620924182003 398.07880833256058 279.5457994104363 414.49411007334129 413.25943150652165 468.00682392901945 145.07146888645366 248.70534458591283 92.574499351205304 1793.8523604836519 955.67340781854 1535.9940787841333 610.86904909997247 321.77647047874052 89.254537604982033 282.90019472967833 468.97703179530799 493.40662052913103 797.31919902322988 130.4813412129879 38.743412710449775 284.61473039537668 27.080939547638991 309.889660112196 36.477981261647074 405.68372816836927 160.80035712581594 12.756918670493176 451.67251707377727
leaf_count=12640 3909 9413 8763 6258 6486 3323 38839 2504 23275 10515 137023 6738 6258 5991 6352 3930 5386 6940 4572 6592 686 345 5307 2528 5774 1926 7857 1391 1043 8260
internal_value=1.17381e-11 0.0355265 -0.0508123 -0.0635811 0.0126041 0.0484899 -0.0432181 -0.0207089 -0.0314076 -0.00052382 -0.0713036 0.0381341 0.0565495 0.0240023 -0.0608958 -0.0272015 -0.0220286 0.00494273 0.0311389 0.0488505 0.0329615 -0.00569689 -0.0271625 -0.00790036 0.014992 -0.0434049 -0.00195963 0.037776 0.00862864 -0.00614894
internal_weight=12992.4 7646.33 5346.09 3753.84 2762.17 4884.16 1032.17 1592.25 929.684 1283.68 2721.67 2137.59 2746.57 1478.49 927.82 218.307 680.979 1065.37 1181.91 1210.58 741.35 662.568 564.161 623.825 737.141 129.052 596.396 654.207 427.251 596.744
internal_count=350824 93344 257480 206419 55057 38287 50404 51061 37424 35077 156015 22114 16173 19980 18992 16371 14149 18706 15376 9915 6677 13637 11565 13292 13303 12441 11766 5963 7529 10764
is_linear=0
shrinkage=0.05


Tree=4
num_leaves=31
num_cat=0
split_feature=14 14 14 0 7 7 0 7 0 14 7 14 10 14 10 10 14 4 7 4 0 10 4 1 10 10 14 0 0 7
split_gain=7985.19 755.056 694.215 173.215 146.393 113.645 100.78 71.376 51.636 47.0992 39.8016 36.0937 30.2064 26.1827 24.343 20.6737 19.2389 18.0871 17.4492 16.5301 16.4952 15.6054 15.4608 15.3392 15.3009 15.2909 14.3715 13.4139 13.3947 13.0798
threshold=0.69852066849984529 1.099883182267392 0.1861329108523205 352.50000000000006 1.3132626908219074 0.98700386110918548 204.50000000000003 -0.35692329601227374 728.50000000000011 1.4712341625792613 0.73074830894734688 0.54295498890861027 0.341477703565715 -0.32078429326771501 0.48807399446761163 0.47004784609549516 1.2909753252599945 4.2388042313248526 0.5025985721195847 3.2917784799401093 50.500000000000007 0.341477703565715 4.1449944382647397 3.5363206194436483 0.71746178125766713 0.69579990220075472 0.91200597441810571 419.50000000000006 837.50000000000011 0.25113960219146497
decision_type=2 2 2 2 2 2 2 2 2 2 2 2 2 2 2 2 2 2 2 2 2 2 2 2 2 2 2 2 2 2
left_child=2 5 6 11 12 8 7 19 17 23 21 18 22 -8 26 -11 -14 25 -4 -1 -21 -5 -3 24 -6 -2 -7 -15 -12 -9
right_child=1 4 3 10 9 14 13 29 -10 15 28 -13 16 27 -16 -17 -18 -19 -20 20 -22 -23 -24 -25 -26 -27 -28 -29 -30 -31
leaf_value=-0.068664631230759332 -0.0023859771202139938 0.0053966152612765703 -0.026754690312778853 -0.06036194344804429 0.032180313511438186 0.0050486751005600801 -0.074900082999243056 -0.042341886102769927 -0.030861039557586147 0.049596458197760152 -0.018359111110659632 -0.0033830265342855294 0.032171714767976027 -0.055598421839331585 0.029307093007065195 0.0616609670064385 0.044858492509446853 0.013367509563178309 -0.011453228210659345 -0.026525796915758893 -0.058880857380777356 -0.042352607610820846 0.027423395657748807 0.048676623466436982 0.05143567945168806 0.017264457517588865 0.020906980352078518 -0.069468430197731051 -0.059623089260328693 -0.024027561113003325
leaf_weight=410.71548746165354 744.70206290681381 97.331233539036475 487.58411649626214 294.8543011804868 349.62369434908032 221.42511816663318 1240.6305956863798 346.47700858104508 114.53474256786285 543.22571622941177 136.41067803595797 468.10223383852281 689.64971517043887 335.9038227450219 613.29851622413844 1025.300510850735 527.30700046080165 376.67610283597605 301.5409335240256 49.838833703193814 187.93727020942606 203.17317810753593 438.91783455776749 967.62802163313609 146.35940929176286 114.17657365626656 402.6803843100206 362.37309286970412 22.979701351228869 135.66198944160715
leaf_count=9059 18733 1980 12020 28243 2556 4052 97471 7064 11080 2810 6137 7871 8624 17347 7251 4267 5058 6210 5365 407 4692 17354 5658 6427 907 1604 6127 39236 3095 2119
internal_value=-4.71337e-11 0.0330473 -0.048885 -0.0252578 0.0448132 0.0112872 -0.0636227 -0.0517584 0.00125541 0.0514631 -0.046055 -0.0143827 0.0333123 -0.070541 0.0222326 0.0574827 0.0376689 0.00423257 -0.0209077 -0.0625907 -0.0520991 -0.0530149 0.0234255 0.0450119 0.0378624 0.000226289 0.0152806 -0.0627963 -0.0243082 -0.0371887
internal_weight=12357 7372.84 4984.18 1914.65 4785.34 2587.49 3069.54 1130.63 1350.09 3032.14 657.418 1257.23 1753.21 1938.91 1237.4 1568.53 1216.96 1235.55 789.125 648.492 237.776 498.027 536.249 1463.61 495.983 858.879 624.106 698.277 159.39 482.139
internal_count=350824 93344 257480 80085 38287 55057 177395 23341 37627 16967 54829 25256 21320 154054 17430 7077 13682 26547 17385 14158 5099 45597 7638 9890 3463 20337 10179 56583 9232 9183
is_linear=0
shrinkage=0.05


Tree=5
num_leaves=31
num_cat=0
split_feature=14 14 14 7 0 13 13 13 13 13 0 0 14 9 9 0 14 13 0 13 4 9 1 1 9 13 9 4 9 9
split_gain=6948.76 674.313 591.624 175.296 154.336 101.554 75.2919 66.1823 54.3448 51.3606 51.2234 48.7705 37.277 32.5961 32.4757 30.8434 29.7227 28.654 24.1016 22.9738 20.2036 19.5314 16.8308 14.5026 14.4774 12.699 12.6219 11.4546 10.8787 10.7663
threshold=0.69852066849984529 1.2565257979376685 0.1861329108523205 1.0226094217484152 368.50000000000006 0.086751288257368803 1.9284876808746081 0.71652859714669426 0.51531111163919496 1.5841509667159925 728.50000000000011 189.50000000000003 0.90182903318589014 0.39004360979023028 0.65851125176377201 269.50000000000006 -0.5185308464905144 0.73088674952672161 201.50000000000003 0.58505351424184504 4.4877356577365601 1.1416426023819819 3.6323243305104147 3.8227283939982462 0.58985226040353889 1.2030613143551288 0.35643499291442876 4.356070704742355 0.58066833304831611 0.10445386875417238
decision_type=2 2 2 2 2 2 2 2 2 2 2 2 2 2 2 2 2 2 2 2 2 2 2 2 2 2 2 2 2 2
left_child=2 3 5 10 8 11 13 -6 18 14 12 16 19 -3 23 26 28 -12 -4 -2 -15 -14 -16 -5 -8 -9 -7 -11 -1 -13
right_child=1 6 4 9 7 15 24 25 -10 27 17 29 21 20 22 -17 -18 -19 -20 -21 -22 -23 -24 -25 -26 -27 -28 -29 -30 -31
leaf_value=-0.065613024424118191 -0.0095889276467713419 0.027228955545942055 -0.015356815145100787 0.0057604623091213041 -0.055944144520339648 -0.038411861497484594 0.044529661231008211 -0.026706808539855756 -0.0013271537200963545 0.029098721311402356 -0.051188936947206713 -0.072087077147033871 0.010459635539676907 0.038440865637112735 0.01906278054343501 -0.055693394493221915 -0.043136633361816577 -0.005661259362020536 -0.033184770766298777 0.0078124076418629833 0.049657893524239688 0.028588169651500479 0.034251843884018772 0.022701715367214246 0.058143310904883054 0.005622580587546556 -0.016898908938694137 0.041929285184308003 -0.037000051264096286 -0.062362204225529197
leaf_weight=397.50369176932145 369.02547478908673 360.01637156895595 444.56310693325941 376.455086633272 431.59971375146415 159.0513124455465 233.5139453955926 94.040862467110856 464.23220326541923 283.17481788725127 57.315109682574985 1321.8298458356003 639.29479028086644 828.80771978251869 333.45501792844152 181.23622370969679 320.14357635180932 87.049169419711689 330.52017858129693 390.26583342425874 778.49703465576749 193.56019164095051 402.56338770830189 190.12653226882685 1193.0877107428387 44.866856667154934 119.33810351509601 450.99641028617043 36.248638640157878 362.69284646298911
leaf_count=9187 10296 3437 7280 5725 45098 3274 1057 5876 7477 2995 7820 108074 11103 8851 5283 16047 6936 5520 12347 7435 4833 3322 5545 2282 4832 2007 2193 3008 694 30990
internal_value=-1.3888e-11 0.0309987 -0.047192 0.0164535 -0.0247627 -0.061199 0.0471696 -0.0462829 -0.0148561 0.0264045 0.00478199 -0.0652627 0.00736784 0.0408278 0.0204436 -0.0396405 -0.0546926 -0.0237365 -0.0229592 -0.000644868 0.0438738 0.0146728 0.0273704 0.0114454 0.055915 -0.0162645 -0.0291898 0.0369804 -0.0632218 -0.0699932
internal_weight=11875.1 7167.2 4707.87 3773.28 1809.82 2898.04 3393.92 570.507 1239.32 2036.77 1736.51 2438.42 1592.15 1967.32 1302.6 459.626 753.896 144.364 775.083 759.291 1607.3 832.855 736.018 566.582 1426.6 138.908 278.389 734.171 433.752 1684.52
internal_count=350824 93344 257480 70334 80085 177395 23010 52981 27104 24838 45496 155881 32156 17121 18835 21514 16817 13340 19627 17731 13684 14425 10828 8007 5889 7883 5467 6003 9881 139064
is_linear=0
shrinkage=0.05


Tree=6
num_leaves=31
num_cat=0
split_feature=14 14 14 0 14 4 0 14 4 0 14 10 10 14 14 4 10 10 4 14 14 0 10 0 5 0 4 4 12 8
split_gain=6037.63 597.955 524.202 138.963 112.305 89.1212 83.826 56.6321 32.786 32.0285 28.2348 27.0776 23.8388 23.0616 18.21 18.0966 17.4744 17.1328 16.7202 15.4627 13.4583 12.1388 11.9109 10.755 10.643 10.3978 10.3468 9.97334 9.95306 9.36618
threshold=0.69852066849984529 1.1264659821017495 0.1861329108523205 388.50000000000006 1.415398167901057 4.2581296573015157 214.50000000000003 -0.2816922386589889 4.3628866697821627 820.50000000000011 0.54295498890861027 0.38818196416290246 0.49574527726781448 0.89217222964442466 -0.32078429326771501 3.2917784799401093 0.39429334733100169 0.34447774819537907 4.1764212150083946 1.6335542459683283 0.91200597441810571 201.50000000000003 0.31358768871358034 458.00000000000006 0.81248081775187053 36.500000000000007 4.0930987452264054 4.550689078200481 1.7258811959727092 -0.51680829777226911
decision_type=2 2 2 2 2 2 2 2 2 2 2 2 2 2 2 2 2 2 2 2 2 2 2 2 2 2 2 2 2 2
left_child=2 5 6 10 8 9 7 15 22 13 21 18 20 23 -8 -1 -10 -5 -6 -13 -7 24 -3 -2 -4 -17 -19 -14 -18 -22
right_child=1 4 3 17 11 12 14 -9 16 -11 -12 19 27 -15 -16 25 28 26 -20 -21 29 -23 -24 -25 -26 -27 -28 -29 -30 -31
leaf_value=-0.063618266006575275 -6.0572328749026119e-05 0.014455590272487379 -0.020539506915613598 -0.053725856745027112 0.0052777383788241532 0.0045900951750285591 -0.069381394745099051 -0.032108686259956269 0.029352441924440503 -0.027698456212390411 -0.0047618048572937912 0.047994882340233462 0.02481164237925397 0.010207482054561888 -0.058616718441668228 -0.020492398399630928 0.03931865294056551 -0.042424242406675035 0.041354306050899153 0.058050989669380715 0.063437333856798214 -0.027517880484513459 0.028296140770938047 -0.01608135108475623 -0.004070631826041375 -0.050352047912653991 -0.018457843732790365 0.045757092632537091 0.05415085444601947 0.01754465440657867
leaf_weight=374.80867847253103 488.24360452080145 204.11016485374421 288.02131342003122 291.35502732472378 34.304851597407833 266.32273603591602 1109.2459783226368 377.13766066264361 440.97234362791642 89.586004898272222 454.34883146960055 952.51881623384543 518.72378733719233 606.30050829229003 608.32239516916161 32.99266234273091 771.82293533801567 145.62989315718005 503.51764644344803 638.51585944276303 11.39366027805954 341.07153925806051 651.97395528800553 133.37426376150688 148.77581362659112 250.6482618219452 65.19486807139765 63.826114049879834 132.52699529076926 459.04878172298777
leaf_count=9784 9090 3773 4726 31316 421 5529 96335 8447 4330 9666 9001 5322 6369 12119 55950 256 5784 15224 3528 2813 91 12924 8728 7206 2280 6623 4614 453 806 7316
internal_value=4.49314e-11 0.0291334 -0.0452307 -0.0237001 0.0405639 0.0103621 -0.0587942 -0.0475584 0.0326455 0.00116356 -0.014665 0.0487521 0.019548 0.00326926 -0.0655688 -0.0564074 0.037513 -0.0458698 0.0390532 0.0520306 0.0135716 -0.0204495 0.0249962 -0.00349799 -0.0149301 -0.0468788 -0.0350129 0.0271065 0.0414922 0.0186561
internal_weight=11454.6 6967.08 4487.55 1734.4 4330.26 2636.82 2753.16 1035.59 2201.41 1317.5 1232.22 2128.86 1319.32 1227.92 1717.57 658.45 1345.32 502.18 537.822 1591.03 736.765 777.869 856.084 621.618 436.797 283.641 210.825 582.55 904.35 470.442
internal_count=350824 93344 257480 80085 35505 57839 177395 25110 23421 38081 28931 12084 19758 28415 152285 16663 10920 51154 3949 8135 12936 19930 12501 16296 7006 6879 19838 6822 6590 7407
is_linear=0
shrinkage=0.05


Tree=7
num_leaves=31
num_cat=0
split_feature=14 14 14 13 0 13 13 14 13 0 0 13 9 0 13 9 0 14 9 9 13 14 6 0 9 12 14 6 9 14
split_gain=5301.68 554.568 466.125 143.072 131.975 77.5773 73.3471 70.5529 56.4438 38.6779 36.6874 35.7393 26.7747 25.4521 23.9296 22.8006 20.6162 18.9397 17.5173 16.5882 15.2909 13.244 12.754 11.9197 11.3252 11.2942 11.2776 10.3648 9.75504 9.57983
threshold=0.69852066849984529 1.2565257979376685 0.15878320446841571 1.2030613143551288 419.50000000000006 0.086751288257368803 1.6306285024476768 0.91200597441810571 0.54966223381760282 168.50000000000003 654.50000000000011 1.0100712038597226 0.89932825957894569 261.50000000000006 2.1924537536256659 0.35643499291442876 236.50000000000003 -0.59562771069398368 0.10445386875417238 1.1416426023819819 2.9741727069211916 1.6335542459683283 2013.5000000000002 873.50000000000011 0.10445386875417238 -0.52749972355411667 0.49960007113469279 2013.5000000000002 -1.3690771227819196 1.5847384257696313
decision_type=2 2 2 2 2 2 2 2 2 2 2 2 2 2 2 2 2 2 2 2 2 2 2 2 2 2 2 2 2 2
left_child=2 3 5 7 8 9 12 10 16 17 18 -6 -3 27 19 25 26 -1 -2 -5 21 -8 28 -17 -11 -9 -4 -7 -10 -14
right_child=1 6 4 14 11 13 20 15 22 24 -12 -13 29 -15 -16 23 -18 -19 -20 -21 -22 -23 -24 -25 -26 -27 -28 -29 -30 -31
leaf_value=-0.057840709981190785 -0.015067408425094412 0.027461714423872203 -0.022752053069575184 0.018739262383820496 -0.05189914182048936 -0.010263048707247899 0.044337237619760231 -0.012003040372089623 0.07500061636603339 -0.066881058962824411 -0.035439882413906075 -0.0065628982309558189 0.037407512858875953 -0.052066449411117779 0.039589942784761169 0.01878832266006511 -0.033333458357301608 -0.039561358106116745 0.0025875833848922176 0.032041896427237974 0.060557756219036411 0.054811552059149948 -0.007362023910197653 -0.0038244812182959987 -0.056677703043942318 0.0077454027360676948 -0.0079313734229463362 -0.033036550378300743 0.0079659026060541673 0.049509590705169582
leaf_weight=312.08405470370781 185.36532114865258 718.19523579295492 336.18357384204865 690.80821040930459 397.65272900392301 74.662327150814235 991.48866991139948 94.109896752124769 5.6222406495362511 1261.8941348080116 89.95723622677906 48.805900731138536 618.29540238570189 150.17716547298187 285.27624278515577 892.39807641808875 305.03899884881685 259.56789725413546 580.4643901764648 354.66588290513027 267.2828883100301 433.84627030929551 277.60680272243917 62.348545400513103 346.66883666992362 313.81626259608311 207.63366633001715 151.02209756174125 156.37939426349476 222.32064974796958
leaf_count=7428 4609 6925 7005 9626 47392 1658 5748 2986 33 109279 9367 3146 6135 14868 2339 14927 14737 5846 12936 4772 990 1727 5320 3955 30974 4817 3558 3281 2955 1485
internal_value=2.6536e-11 0.0274589 -0.0435186 0.0137928 -0.0235159 -0.0570953 0.0423766 0.00601778 -0.0153982 -0.060712 -0.00523384 -0.0469431 0.0345512 -0.0361162 0.0267544 0.013084 -0.0229293 -0.0495407 -0.00168572 0.023252 0.0495834 0.0475254 -0.000856156 0.0173116 -0.0646821 0.00318937 -0.0170934 -0.0255025 0.0102923 0.0406082
internal_weight=11091.6 6800.64 4291 3549.21 1734.92 2556.08 3251.43 2218.46 1288.46 2180.21 855.787 446.459 1558.81 375.862 1330.75 1362.67 848.856 571.652 765.83 1045.47 1692.62 1425.33 439.608 954.747 1608.56 407.926 543.817 225.684 162.002 840.616
internal_count=350824 93344 257480 70334 84146 173334 23010 53597 33608 153527 26912 50538 14545 19807 16737 26685 25300 13274 17545 14398 8465 7475 8308 18882 140253 7803 10563 4939 2988 7620
is_linear=0
shrinkage=0.05


Tree=8
num_leaves=31
num_cat=0
split_feature=14 14 14 0 13 13 14 9 13 13 0 9 0 0 13 9 14 14 0 9 9 9 13 14 13 0 12 9 13 3
split_gain=4672.5 505.105 423.868 134.174 124.984 79.1903 57.0744 56.2074 50.951 42.2759 38.0209 29.6255 23.3374 22.4274 21.9689 19.8675 18.9882 18.3121 17.136 15.5891 13.3973 12.7597 12.3252 11.5313 11.4934 10.2928 9.69263 9.54711 9.09757 8.96122
threshold=0.69852066849984529 1.2399835547044076 0.071032908582607537 368.50000000000006 1.2030613143551288 1.9284876808746081 0.91200597441810571 0.24724832434302724 0.51531111163919496 0.92925527512843697 654.50000000000011 0.89932825957894569 261.50000000000006 193.50000000000003 2.1924537536256659 1.1416426023819819 -1.0121621101722498 0.47426052008728864 342.50000000000006 0.18498794588465714 1.1416426023819819 1.1416426023819819 0.22081135614789035 1.5047686067366668 0.45203510787782897 168.50000000000003 -0.39228789321045116 0.58985226040353889 2.0931670216750784 711.50000000000011
decision_type=2 2 2 2 2 2 2 2 2 2 2 2 2 2 2 2 2 2 2 2 2 2 2 2 2 2 2 2 2 2
left_child=2 4 7 8 6 11 10 13 17 27 19 22 24 16 20 18 -1 25 -8 -2 -6 -7 -3 -13 -9 -4 -24 -5 29 -10
right_child=1 5 3 9 14 21 15 12 28 -11 -12 23 -14 -15 -16 -17 -18 -19 -20 -21 -22 -23 26 -25 -26 -27 -28 -29 -30 -31
leaf_value=-0.06382810560906553 -0.013587365916263392 0.0096577082749755658 -0.020555014623097695 -0.053992079055288959 0.01709193898146109 0.043905848534507325 0.013131346293697013 -0.036592374194483579 0.015691970606738725 -0.0083358644905252178 -0.037853754943501572 0.034679635353679551 -0.053794128794911661 -0.064286077015759377 0.037391490025096639 0.022352893800928 -0.044220474812510985 -0.012918313979260649 -0.00060198316301958129 0.0025864725699415456 0.029417553601180819 0.053717300279851159 0.022713707417550771 0.045089260372186336 -0.0092356136030530365 -0.034635745099276909 0.03406597729787704 -0.039245866219959423 0.032184856768673574 -0.0057810881892488512
leaf_weight=202.89636570680887 205.92868065950461 97.371475863619708 241.03694107662886 344.08639663753274 647.86314365564613 612.80080930888653 592.58610778721049 236.4756115503842 56.017656852025539 72.000147241051309 81.51796736488177 673.31813726137625 222.88083403953351 1236.4626947680517 269.95288779726252 314.07327586054453 315.42832805402577 318.06050358666107 368.32281567173777 538.75132467685034 334.18645580240991 721.53820267226547 364.96710507862736 439.82587281125598 45.835404573008418 281.18881282629445 387.82782573217992 161.17598615666793 19.284593929536641 366.27813575253822
leaf_count=5603 5307 1147 4408 40437 9373 3028 6633 6937 964 4551 9367 6938 23774 115447 2222 6298 8359 7755 12982 12238 4542 3053 4102 3023 798 12402 3091 18921 212 6912
internal_value=-6.19162e-11 0.025918 -0.041848 -0.024164 0.0122534 0.0398127 0.00480199 -0.0563954 -0.01515 -0.0441803 -0.00543492 0.033425 -0.0416994 -0.0606263 0.0247588 0.0114356 -0.0518958 -0.0223763 0.00786727 -0.00188613 0.0212863 0.0492113 0.026397 0.0387927 -0.0321508 -0.0281367 0.0285622 -0.0492881 -0.00139904 -0.00293268
internal_weight=10769.9 6650.83 4119.11 1859.13 3353.18 3297.65 2101.18 2259.98 1281.87 577.263 826.198 1963.31 505.192 1754.79 1252 1274.98 518.325 840.286 960.909 744.68 982.05 1334.34 850.166 1113.14 282.311 522.226 752.795 505.262 441.58 422.296
internal_count=350824 93344 257480 96562 68962 24382 52825 160918 32653 63909 26912 18301 31509 129409 16137 25913 13962 24565 19615 17545 13915 6081 8340 9961 7735 16810 7193 59358 8088 7876
is_linear=0
shrinkage=0.05


Tree=9
num_leaves=31
num_cat=0
split_feature=7 7 7 0 7 9 9 9 7 9 9 0 4 9 4 0 0 9 9 4 4 0 3 0 10 0 3 7 1 10
split_gain=3937.09 494.443 357.857 99.6836 89.2644 70.106 63.3056 45.1326 42.8379 41.59 34.6939 33.6223 28.9483 21.5412 20.1756 18.8008 18.1759 16.0619 12.8606 12.651 12.631 11.685 11.0603 11.0201 10.5434 10.4936 10.2508 9.90282 9.63719 9.41011
threshold=0.62377648188644208 1.1561622083285277 0.048879293229136034 432.50000000000006 1.4160230155297611 1.1269516790683431 0.28962044419246924 0.65851125176377201 0.95249048191380215 0.33941027792601919 1.1416426023819819 645.00000000000011 3.7462446805512504 0.77284597961125623 4.5131113657757957 224.50000000000003 193.50000000000003 0.020160405404964627 1.0829959051684275 4.3383814860636063 4.1110589963164328 112.50000000000001 970.50000000000011 154.50000000000003 0.65251745514491277 193.50000000000003 625.50000000000011 -1.1093035559228903 3.5943291479682009 0.59491426600410569
decision_type=2 2 2 2 2 2 2 2 2 2 2 2 2 2 2 2 2 2 2 2 2 2 2 2 2 2 2 2 2 2
left_child=2 5 6 9 7 8 12 26 11 16 17 14 25 -5 -2 -8 20 -6 -11 -7 -4 -14 23 -10 -12 27 -3 -1 -28 -9
right_child=1 4 3 13 10 19 15 29 22 18 24 -13 21 -15 -16 -17 -18 -19 -20 -21 -22 -23 -24 -25 -26 -27 28 -29 -30 -31
leaf_value=-0.062887681468644804 -0.0024046646109385427 0.032495209983546096 -0.021990614970457248 -0.049196257860506278 0.017237111905796298 0.016207406557481374 -0.027065861724419576 0.028388002822884104 0.036685944499452228 -0.010273129412182058 0.043539196070444652 -0.027803673893905881 -0.022064406111401518 -0.024010080745089431 0.036917181510011575 -0.047117537818796462 -0.033188117394817848 0.037409786871980044 0.0064490511239070139 0.031070144025458015 0.00049913005349057306 -0.048031083171208085 0.0066082295877104222 0.013311625031528412 0.053541562158454528 -0.062696125419231835 0.0038920388175160852 -0.047221046110685366 0.018027178414703148 0.037373678999480582
leaf_weight=166.85438508563675 977.82543873145187 74.301601454877527 241.7092769453302 336.39110128990433 109.86148158740252 494.72282785960124 235.91450282896403 710.16816695869784 66.173155881464481 456.05690702801803 579.85092807334149 133.34252551908139 62.675096748396754 113.55299017402285 33.746888853725977 231.72469431304489 303.36630978668109 969.16084697537008 153.73715306504164 201.48686005582567 84.173806677688845 140.32660498574842 542.02140640106518 211.88983863752219 482.84120640717447 1096.557887187475 195.33718934445642 255.04774165106937 315.09846844745334 494.06221217848361
leaf_count=4952 23448 1097 4649 41055 1026 12343 5719 8050 403 12569 3447 13781 975 11801 356 23369 14363 6617 3896 2592 1341 9556 9965 5857 2449 106739 2719 7213 3601 4876
internal_value=-6.42672e-11 0.0235174 -0.0399743 -0.0226827 0.0347849 0.00687489 -0.0533155 0.0265406 0.00204433 -0.0153628 0.0416713 -0.00420373 -0.0577472 -0.04284 -0.00109286 -0.0370019 -0.0243806 0.0353559 -0.00605725 0.0205088 -0.0161816 -0.0400141 0.0107672 0.0188742 0.0480838 -0.0601179 0.0151436 -0.0534169 0.0126178 0.0320746
internal_weight=10470 6591.89 3878.09 1688.99 3930.68 2661.21 2189.1 1788.97 1965 1239.04 2141.71 1144.91 1721.46 449.944 1011.57 467.639 629.249 1079.02 609.794 696.21 325.883 203.002 820.084 278.063 1062.69 1518.46 584.737 421.902 510.436 1204.23
internal_count=350824 102627 248197 89674 33882 68745 158523 20343 53810 36818 13539 37585 129435 52856 23804 29088 20353 7643 16465 14935 5990 10531 16225 6260 5896 118904 7417 12165 6320 12926
is_linear=0
shrinkage=0.05


Tree=10
num_leaves=31
num_cat=0
split_feature=14 14 14 13 13 13 9 14 12 4 4 4 13 9 13 9 9 12 14 11 13 9 13 13 13 3 14 4 9 10
split_gain=3715.89 423.541 364.96 104.868 80.0975 71.0804 50.6592 47.1552 27.2424 27.1651 26.3536 21.2497 18.9331 16.9378 16.8392 16.2058 15.8254 12.506 12.4704 11.2536 9.86677 9.67215 9.36032 9.31891 9.173 9.06965 9.06903 8.82609 8.61544 8.49254
threshold=0.69852066849984529 1.2565257979376685 0.071032908582607537 1.1232845293903042 0.51531111163919496 1.9284876808746081 0.24724832434302724 0.91200597441810571 -0.55923238752051108 4.356070704742355 4.5055727554179574 3.3916664153137028 1.2601989004142207 0.15809573422087411 0.2452318214484773 1.3286926967899404 0.3819131963655083 -0.62706377506626343 1.6335542459683283 0.21221228345691098 2.1924537536256659 0.65851125176377201 0.27712862602125649 2.9741727069211916 0.47258260451487871 1017.0000000000001 0.52580062834280794 4.2885049515757734 -0.040420492255486988 0.63794859358674438
decision_type=2 2 2 2 2 2 2 2 2 2 2 2 2 2 2 2 2 2 2 2 2 2 2 2 2 2 2 2 2 2
left_child=2 3 6 7 8 10 11 17 -4 21 15 -1 -6 -10 -8 28 27 -2 23 -19 29 -5 -12 -7 -13 -24 -15 -9 -3 -11
right_child=1 5 4 9 12 18 14 16 13 20 22 24 -14 26 -16 -17 -18 19 -20 -21 -22 -23 25 -25 -26 -27 -28 -29 -30 -31
leaf_value=-0.061789419546766783 -0.022316296370085656 0.0054849591214970808 -0.04395453126571415 0.0075114588112116633 -0.012085755218850245 0.040113069002380805 -0.043295243815370837 -0.0064547539042500686 -0.032937492571868475 0.0213371598600199 0.016798511690350456 -0.051141315044072704 0.0088427432824425486 -0.023829964696704568 -0.019553107637131556 0.03507933289685438 0.013844705475092041 -0.010453649698922502 0.053072318238875142 0.0026406530440396588 0.039710681858858538 0.019535970270159055 0.04619187962257424 0.054566420667677931 -0.018960978958947619 0.034634188937035196 -0.0092889999721999152 0.0088788437257139655 0.023270083905503464 0.035530926480653209
leaf_weight=986.64711265423102 101.41736254614079 76.091106352920178 257.64668776039616 269.96378427813761 443.48317387384304 659.21438506618142 383.99114116909914 181.94763849719311 425.96672590935486 354.38419553055428 49.71852766815573 589.36624643858522 142.88167858727684 352.94729580459534 92.715090903104283 308.94219573994633 820.19527971437492 307.06220002358896 437.53327650763094 352.38870323736046 162.93572404282168 439.48435935788439 282.28676488436759 134.2331154756248 23.00925611803541 425.7473891787231 154.02371174244036 193.81477776932297 647.82813258597162 149.98923959943932
leaf_count=82119 7264 949 28179 4771 19049 3643 27174 4798 21799 3995 509 46334 3339 17923 4335 3243 17316 8872 1659 9941 1038 7832 2087 587 956 2801 6273 3108 7532 1399
internal_value=-3.91218e-11 0.0234883 -0.0387451 0.0111993 -0.0221125 0.0370462 -0.0529835 0.00376075 -0.0295623 0.0217719 0.0306877 -0.0572485 -0.00698603 -0.0255877 -0.0386776 0.0254921 0.00995168 -0.00597034 0.0462953 -0.00345649 0.0290137 0.0149603 0.0377695 0.0425582 -0.0499322 0.0392421 -0.0194122 0.00145417 0.0214007 0.0255581
internal_weight=10207.9 6355.18 3852.68 3333.58 1776.95 3021.59 2075.73 1956.83 1190.58 1376.76 1790.61 1599.02 586.365 932.938 476.706 1032.86 1195.96 760.868 1230.98 659.451 667.309 709.448 757.753 793.448 612.376 708.034 506.971 375.762 723.919 504.373
internal_count=350824 93344 257480 70334 96562 23010 160918 51299 74174 19035 17121 129409 22388 45995 31509 11724 25222 26077 5889 18813 6432 12603 5397 4230 47290 4888 24196 7906 8481 5394
is_linear=0
shrinkage=0.05


Tree=11
num_leaves=31
num_cat=0
split_feature=14 14 14 0 13 13 13 4 0 13 0 14 14 10 7 14 4 7 14 3 13 13 13 6 4 13 7 0 11 0
split_gain=3322.75 452.527 278.596 111.329 101.56 75.1064 41.0955 40.5333 38.4874 29.8601 28.5075 26.6822 17.9785 16.6319 15.1673 15.1284 14.4147 14.0413 13.334 13.2307 10.9091 10.2946 10.2346 9.71892 8.94471 8.77505 8.4499 8.21198 8.07517 8.04964
threshold=0.63764836427086291 1.1264659821017495 -0.12911679174452914 352.50000000000006 1.9284876808746081 1.2030613143551288 0.32819892639114379 4.4568058211502484 728.50000000000011 0.92925527512843697 164.50000000000003 0.89217222964442466 1.5047686067366668 0.41636626000858817 0.99911991914194631 1.3678544667271109 4.356070704742355 -0.31775410384599229 0.33332628568667516 970.50000000000011 0.50448285384413782 -0.02885746250040688 0.31911528772723591 2013.5000000000002 4.2351631560461795 0.30169717366689824 1.3524641105005637 36.500000000000007 -0.57616805807382276 220.50000000000003
decision_type=2 2 2 2 2 2 2 2 2 2 2 2 2 2 2 2 2 2 2 2 2 2 2 2 2 2 2 2 2 2
left_child=2 5 10 6 7 8 18 13 11 25 17 20 -6 22 -10 19 -7 -1 29 -9 -2 -12 -3 27 -13 -5 -15 -8 -17 -4
right_child=1 4 3 9 12 16 23 15 14 -11 21 24 -14 26 -16 28 -18 -19 -20 -21 -22 -23 -24 -25 -26 -27 -28 -29 -30 -31
leaf_value=-0.048388802220356013 -0.010228593117178298 -0.0032629851619738132 -0.025383328005146338 -0.049802558823970569 0.037481551566839709 0.012105002121671654 0.044494460601277146 0.037753897265235536 -0.037799419176690982 -0.0087078770817204925 -0.059516419084463104 0.0021341085962773452 0.048913604732951664 0.021358672121741154 -0.0052442971123721205 0.02494647492807215 0.02542559813772979 -0.02803462563681642 -0.016438031128024215 0.020408933136899385 0.0013459540848923331 -0.044107734858628053 0.016048890545882218 -0.011257833863449045 0.012732524058626675 -0.036352367462766509 0.033169040174823874 0.00057738509772260933 0.039922908164194137 -0.040213791656919406
leaf_weight=332.58016330737155 422.4639970381686 82.081501717009814 277.70268724788912 418.41493628673197 687.43609008728527 483.54785267836996 11.318349222652612 164.65685857657809 89.60117315070238 59.393352824408794 1091.1778121986426 350.37977002735715 688.20725880004466 546.17473596951459 59.558999200031394 106.37193736620247 350.16980432870332 113.69647858524695 300.78955604368821 330.88691458571702 392.89924803638132 120.35339891987678 417.89959869835002 300.02690664143302 461.02089628699468 170.75080269260798 209.55619021342136 178.76248909404967 585.03436199575663 136.45650922565255
leaf_count=9171 13621 1574 7600 54110 4468 9145 58 1801 12598 3833 111396 7864 2923 7742 3495 854 3576 2656 8666 3216 9882 11286 6879 6588 7262 19826 1899 3967 4149 8719
internal_value=-3.31781e-11 0.0213671 -0.0391141 -0.0257951 0.0323347 0.00531978 -0.0168056 0.0262151 -0.00049208 -0.0424981 -0.0540063 0.00173677 0.0432008 0.0199531 -0.0248003 0.0328399 0.0176998 -0.0432032 -0.0244505 0.0261722 -0.00465116 -0.0579857 0.0128785 -0.00565352 0.00815591 -0.0459045 0.0246336 0.00319242 0.0376188 -0.0302696
internal_weight=9939.37 6427.95 3511.42 1853.62 3818.31 2609.64 1205.06 2442.66 1775.92 648.559 1657.81 1626.76 1375.64 1255.71 149.16 1186.95 833.718 446.277 714.949 495.544 815.363 1211.53 499.981 490.108 811.401 589.166 755.731 190.081 691.406 414.159
internal_count=350824 102948 247876 113367 35505 67443 35598 28114 54722 77769 134509 38629 7391 18094 16093 10020 12721 11827 24985 5017 23503 122682 8453 10613 15126 73936 9641 4025 5003 16319
is_linear=0
shrinkage=0.05


Tree=12
num_leaves=31
num_cat=0
split_feature=7 7 13 13 0 4 13 0 7 4 13 0 6 3 3 0 13 0 13 11 13 7 13 4 4 0 10 0 6 4
split_gain=2824.95 401.818 275.276 91.0439 64.7099 59.0173 50.9899 35.9092 29.8844 27.6309 23.3936 21.5582 21.379 20.0816 19.1892 19.1057 18.6446 18.3607 16.6361 16.2821 14.3621 14.0689 13.993 13.7074 13.1724 10.7075 9.53243 9.52725 9.29552 8.66893
threshold=0.59754338792118455 1.1561622083285277 -0.021727750072928046 2.0931670216750784 432.50000000000006 3.7111962770325762 0.56112314287364184 528.50000000000011 1.4160230155297611 3.8261327760637158 0.79078526159689189 288.50000000000006 2013.5000000000002 824.50000000000011 1169.0000000000002 154.50000000000003 1.2601989004142207 36.500000000000007 0.4937730149299962 -0.62538119813005433 1.1232845293903042 -0.38433201025220121 1.3219748574871064 4.4568058211502484 4.356070704742355 970.50000000000011 0.65251745514491277 50.500000000000007 2013.5000000000002 4.3003277377551168
decision_type=2 2 2 2 2 2 2 2 2 2 2 2 2 2 2 2 2 2 2 2 2 2 2 2 2 2 2 2 2 2
left_child=2 6 5 8 9 15 7 13 14 18 -6 -7 20 23 -3 21 -16 -11 -4 27 25 -1 29 -2 -5 -8 -21 -10 -20 -14
right_child=1 3 4 24 10 11 12 -9 19 17 -12 -13 22 -15 16 -17 -18 -19 28 26 -22 -23 -24 -25 -26 -27 -28 -29 -30 -31
leaf_value=-0.049351479548648484 0.0041485807220762397 0.027603782553002915 -0.028994475805227432 0.031646908755350624 -0.042614557488996986 -0.026516756372957175 0.011571772525022827 -0.027316425977585282 -0.044613253654615832 0.035588820773879884 -0.0072040626108451624 -0.047283646323378725 -0.0046585168781619751 -0.0079785686703415046 0.0070149666119611199 -0.056720136703447346 0.022194569176332155 -0.0079395691997007529 0.01236694366882935 0.030633651132030017 0.022629951824314543 -0.025885268146613002 0.011729667173946591 0.031217503779244201 0.044827358911034558 -0.020454007273362385 0.041617884655836095 0.020185005018772694 -0.01626092525631952 0.013906977321976464
leaf_weight=233.16723285336047 289.2534001066233 526.47306599727017 310.45760044758208 238.11852852860466 320.98790285347786 333.9278593424242 525.65440650530218 147.3661353946809 5.8403455577790728 25.325974646955729 54.571043192001525 199.71205968793947 389.11514924599032 395.69393864150334 367.79343271942344 1147.6383703946485 449.53610728762578 557.84825082763564 39.293808958027512 658.76236433547456 377.68951281937188 87.970817426219583 336.79509525425965 55.788969452725723 929.52334525529295 27.462974824127741 282.09855344076641 197.48231349920388 101.86044860107359 74.995627999509452
leaf_count=6741 6864 7234 12902 1831 44190 10242 11675 15403 26 189 4253 22514 12315 9760 5736 121211 5002 16233 832 5616 5994 1965 6213 660 4523 2731 1985 1929 2710 1345
internal_value=-2.49015e-11 0.0199106 -0.036612 0.0306213 -0.0196914 -0.0485295 0.00496519 -0.00477535 0.0252157 -0.0132392 -0.0374692 -0.0342887 0.00996059 -0.00029091 0.0201592 -0.0537035 0.0153638 -0.00604923 -0.0225237 0.0311543 0.0151139 -0.0429233 0.00397145 0.00852528 0.0421395 0.00998165 0.0339271 0.0183237 -0.00829164 -0.00165852
internal_weight=9688.2 6275.44 3412.76 3655.63 1410.35 2002.42 2619.82 888.102 2487.99 1034.79 375.559 533.64 1731.71 740.736 1343.8 1468.78 817.33 583.174 451.612 1144.18 930.807 321.138 800.906 345.042 1167.64 553.117 940.861 203.323 141.154 464.111
internal_count=350824 106842 243982 33882 81309 162673 72960 32687 27528 32866 48443 32756 40273 17284 17972 129917 10738 16422 16444 9556 20400 8706 19873 7524 6354 14406 7601 1955 3542 13660
is_linear=0
shrinkage=0.05


Tree=13
num_leaves=31
num_cat=0
split_feature=14 14 14 0 13 13 9 14 13 13 0 4 4 9 9 4 0 9 9 14 9 9 0 9 9 3 0 4 13 4
split_gain=2677.16 339.692 297.447 87.7478 83.5584 49.6343 38.4527 36.7102 35.7481 31.3248 27.0231 21.1761 18.0119 15.9889 13.7936 12.2668 12.1623 10.7013 10.6099 10.4121 10.38 9.46327 9.1945 9.04323 8.42781 7.95454 7.83213 7.66361 7.51971 8.14163
threshold=0.69852066849984529 1.2732919433781829 -0.053545642491851515 368.50000000000006 1.2030613143551288 1.9284876808746081 0.15809573422087411 1.0280796645322388 0.26914009778140013 0.92925527512843697 608.50000000000011 4.5055727554179574 4.356070704742355 0.32333411492020175 0.39004360979023028 3.4700861564582932 261.50000000000006 1.3286926967899404 0.095053331122717133 1.6335542459683283 0.58985226040353889 0.11332483642693199 107.50000000000001 1.0130808970047116 0.43361130165688044 744.50000000000011 112.50000000000001 4.356070704742355 0.27712862602125649 4.6320405374588054
decision_type=2 2 2 2 2 2 2 2 2 2 2 2 2 2 2 2 2 2 2 2 2 2 2 2 2 2 2 2 2 2
left_child=2 4 6 8 7 11 15 10 18 20 13 14 24 -2 26 -1 -8 25 -4 27 -5 -9 -17 -12 -6 -10 -3 -7 -13 -30
right_child=1 5 3 9 12 19 16 21 17 -11 23 28 -14 -15 -16 22 -18 -19 -20 -21 -22 -23 -24 -25 -26 -27 -28 -29 29 -31
leaf_value=-0.057799708315465818 -0.0078266234349733694 0.030105436052630205 -0.028871899312960483 -0.046009648946052695 0.0035628680764151206 0.0283093448473513 -0.029587060555541941 -0.00078999557727540927 0.0043356744118594366 -0.0061926344504410263 -0.030081737323091218 0.014928828869958978 0.025581699502360888 0.0051621874996324521 0.025870590490331538 -0.028228505301923529 -0.046997372115161376 0.014549079746297594 -0.016027864462163487 0.048280277537131044 -0.030707920936343988 0.013929570227805707 -0.050290794278954269 -0.0046201859676808241 0.016954922081878522 -0.010343960829741074 0.003906967947652413 0.040958899750508974 0.03317921868609499 0.047233279695604431
leaf_weight=881.46917029297038 361.9910019300878 36.817405147477984 297.70098537881859 358.26176453001972 154.79447055468336 153.91037610452622 235.85788202931872 130.18082730492461 115.85877194674686 72.519505550648319 104.4521742133511 45.082224932266399 639.46324681560509 685.79828661648207 730.65967659332091 56.502791821374558 174.5421801104676 61.801901705795899 349.60414229275193 400.05600209720433 160.4722676716483 677.25454963407537 287.58621516321728 52.352135864435695 487.33377911461866 453.52357797580771 126.70298427017406 539.24093066062778 501.71654485724866 129.68689916469157
leaf_count=84744 8664 187 11670 49432 2729 1218 7817 2697 2710 4658 10894 484 6157 14791 8618 1204 22236 1254 12117 1659 21042 13202 28135 4140 8454 10461 1998 2778 3822 852
internal_value=1.13283e-11 0.0204006 -0.0346683 -0.021045 0.00966319 0.0336764 -0.0502384 0.00330716 -0.0136789 -0.0369729 -0.00222227 0.0279825 0.0196418 0.000674804 0.0229328 -0.0546743 -0.0369916 -0.00521202 -0.0219349 0.0418572 -0.041276 0.0115564 -0.0466679 -0.0215809 0.0137266 -0.00735693 0.00980568 0.0381501 0.0346572 0.0360658
internal_weight=9463.19 5957.49 3505.7 1869.74 3293.62 2663.87 1635.96 2012.03 1278.49 591.254 1204.59 1570.67 1281.59 1047.79 894.18 1225.56 410.4 631.184 647.305 1093.21 518.734 807.435 344.089 156.804 642.128 569.382 163.52 693.151 676.486 631.403
internal_count=350824 93344 257480 113344 71728 21616 144136 54388 38212 75132 38489 15961 17340 23455 10803 114083 30053 14425 23787 5655 70474 15899 29339 15034 11183 13171 2185 3996 5158 4674
is_linear=0
shrinkage=0.05


Tree=14
num_leaves=31
num_cat=0
split_feature=14 14 14 13 0 13 14 13 9 0 13 4 4 9 14 0 4 9 9 9 0 4 0 0 9 9 14 13 7 13
split_gain=2402.83 352.101 238.1 89.5726 79.4446 47.2308 41.3891 31.6473 30.6144 27.7 24.1879 19.4778 18.8152 17.3174 14.0273 12.2653 11.3734 11.2366 11.073 10.5617 9.59472 8.90895 8.73933 8.52643 8.4972 8.10631 7.9854 7.73651 7.95756 7.62406
threshold=0.63764836427086291 1.2732919433781829 -0.12911679174452914 1.1750682642168788 352.50000000000006 1.6847437097417781 0.91200597441810571 0.34565469336325477 0.29846199605045842 645.00000000000011 0.66134759493294315 4.356070704742355 4.5055727554179574 1.1567378182297994 1.6335542459683283 873.50000000000011 3.3916664153137028 0.15809573422087411 0.095053331122717133 1.349511716585212 36.500000000000007 3.7111962770325762 168.50000000000003 201.50000000000003 1.5970214332065489 1.2360127623936554 0.87240240759991172 1.9284876808746081 1.7915100496888352 2.9741727069211916
decision_type=2 2 2 2 2 2 2 2 2 2 2 2 2 2 2 2 2 2 2 2 2 2 2 2 2 2 2 2 2 2
left_child=2 3 8 6 7 12 9 17 16 18 -6 26 19 15 24 -8 -1 -4 -2 -3 21 -9 -18 -10 29 -22 -5 -13 -29 -7
right_child=1 5 4 11 10 14 13 20 23 -11 -12 27 -14 -15 -16 -17 22 -19 -20 -21 25 -23 -24 -25 -26 -27 -28 28 -30 -31
leaf_value=-0.056806955534005582 -0.014080576687972642 0.016788541923859798 -0.028188411748025163 0.0032176064998236872 -0.04204597267113238 0.030811837951261363 0.0055127794230990217 -0.028689481663801558 -0.025515053799242154 -0.032472488118019414 -0.015385604882392146 0.01997718666876264 0.032590297018090242 0.018119323094394041 0.046372143144990774 -0.021824249571835177 -0.035358956322458134 -0.015340785025619164 -0.00028945622214357193 0.029933693276600129 -0.0091389030900332485 0.03951397153669766 -0.051518238668026933 -0.043444818441386895 0.045675061873897346 0.011606177238607806 0.015501740871762253 0.032251406544765236 -0.03980476870963625 0.046004417302831488
leaf_weight=805.82800397164829 190.79219807166373 536.91883959597908 338.31605281238444 179.49743192143796 490.79191156763409 586.03702874947339 870.17453548322374 6.1963614262640503 130.17237162770471 92.349053901387379 102.91575743485009 394.11976612987928 568.19499683170579 297.18278177367756 444.66894992440939 43.061721563572064 122.89905065437779 342.46413508034311 613.77645349936211 213.59505120525137 380.02042965416331 21.065705179702491 262.13435996607586 135.14814069017302 162.50758982729167 53.751093931728974 503.09883563435869 251.23037524393294 3.8909193091094485 96.122233506757766
leaf_count=80247 5995 7063 13530 3874 69386 4131 16965 41 3552 12761 8383 4610 4454 6322 2050 3688 3685 11863 16539 2464 8965 97 30738 16287 976 1102 8678 1872 28 478
internal_value=-3.40403e-11 0.0185248 -0.0350984 0.00801839 -0.0225892 0.0323795 0.0016035 -0.0148753 -0.0500073 -0.00653675 -0.0374246 0.0181685 0.0257262 0.00763541 0.0391843 0.00422376 -0.0534293 -0.0217255 -0.00355983 0.0205296 -0.00475997 0.0240121 -0.0463603 -0.0346481 0.0354003 -0.00656826 0.0122715 0.0243685 0.0311525 0.0329526
internal_weight=9238.92 6047.22 3191.7 3439.17 1735.52 2608.04 2107.34 1141.81 1456.18 896.918 593.708 1331.84 1318.71 1210.42 1289.34 913.236 1190.86 680.78 804.569 750.514 461.034 27.2621 385.033 265.321 844.667 433.772 682.596 649.241 255.121 682.159
internal_count=350824 102948 247876 81332 113367 21616 62270 35598 134509 35295 77769 19062 13981 26975 7635 20653 114670 25393 22534 9527 10205 138 34423 19839 5585 10067 12552 6510 1900 4609
is_linear=0
shrinkage=0.05


Tree=15
num_leaves=31
num_cat=0
split_feature=14 14 14 13 0 13 14 13 13 0 13 4 0 10 13 13 4 14 11 14 14 10 13 13 14 13 10 6 12 13
split_gain=2170.65 327.951 222.889 79.1462 70.3932 45.0685 41.5125 27.4426 25.1026 23.7193 21.9363 16.3555 15.3792 14.1377 13.1271 12.9637 11.2526 10.9062 10.7628 9.61715 9.09201 8.67215 7.8243 7.73471 7.72865 7.62599 7.23172 6.83932 6.45383 6.40487
threshold=0.63764836427086291 1.2732919433781829 -0.12911679174452914 1.2912178337756965 352.50000000000006 1.6847437097417781 0.90182903318589014 0.35473290717705847 0.12274731056446807 635.50000000000011 0.92925527512843697 4.5055727554179574 148.50000000000003 0.7431221698189131 2.1924537536256659 0.26914009778140013 4.2581296573015157 0.33332628568667516 0.21221228345691098 1.0750304918818905 1.6335542459683283 1.2157125044317998 2.6702818999456279 0.10807545425354219 -1.6960289844368006 0.30169717366689824 0.66886730171074549 2013.5000000000002 -0.59625901617165022 0.27712862602125649
decision_type=2 2 2 2 2 2 2 2 2 2 2 2 2 2 2 2 2 2 2 2 2 2 2 2 2 2 2 2 2 2
left_child=2 3 8 6 7 11 9 17 12 18 25 23 24 20 19 -8 -17 -4 -2 -5 -7 27 -15 -3 -1 -6 -21 -9 -25 -13
right_child=1 5 4 14 10 13 15 21 -10 -11 -12 29 -14 22 -16 16 -18 -19 -20 26 -22 -23 -24 28 -26 -27 -28 -29 -30 -31
leaf_value=-0.058337490404231244 -0.0095748502351828552 -0.0023886564400532259 -0.026361464448689371 0.010316720524978614 -0.043239970104846676 0.030978197106934609 -0.002674517960705006 0.001764946911234059 -0.026644586966621933 -0.029709667985947555 -0.0067975555657639386 0.012646186353665132 -0.053789954003807865 0.040850597491220865 0.027831622482692664 0.0040000151120240905 0.014252849032691212 -0.013492537384487267 0.0019771521732026036 0.016561533867112774 0.041899857479288372 0.037107499318959174 0.05594924443572348 0.012423183523790198 -0.0368578390251127 -0.029927681171914463 0.03130952894553312 -0.01107824176421502 0.023669291357083722 0.032691610664584161
leaf_weight=50.873355556512251 378.27310434554238 37.374448289396241 388.03143123607151 459.92054101609392 364.23300017270958 596.9311804282479 248.62461529843858 169.53455595334526 117.13482251987443 95.939222789122141 57.676342783190194 43.203990391688421 988.88159278868989 252.21088628098369 272.97036601847503 459.80066348768014 640.24081199555076 285.97184441547142 431.77275847566489 280.94295394700021 279.91064677201211 11.937588466331361 130.04769392684102 168.08038127742475 236.851344209339 152.67350586026441 118.0486269009416 266.77323132636957 529.31856656004675 513.19375905022025
leaf_count=1690 10776 510 16614 7888 54110 4076 5741 3713 7120 13062 3833 484 118494 1613 2561 13126 11370 8978 11620 3713 1383 95 563 3129 7205 19826 1475 6198 5888 3970
internal_value=3.57828e-11 0.01769 -0.0339814 0.00749201 -0.0218121 0.031232 0.00207614 -0.0145251 -0.0487971 -0.00620159 -0.0360447 0.0246682 -0.0508297 0.0379629 0.0182801 0.00763682 0.00996732 -0.0209013 -0.00341737 0.0152446 0.0344647 -0.00493744 0.0459873 0.0197713 -0.0406557 -0.0393081 0.020925 -0.00608781 0.0209589 0.0311351
internal_weight=9027.38 5936.81 3090.57 3386.53 1696.83 2550.27 2254.65 1122.25 1393.74 905.985 574.583 1291.17 1276.61 1259.1 1131.88 1348.67 1100.04 674.003 810.046 858.912 876.842 448.245 382.259 734.773 287.725 516.907 398.992 436.308 697.399 556.398
internal_count=350824 102948 247876 81332 113367 21616 65695 35598 134509 35458 77769 13981 127389 7635 15637 30237 24496 25592 22396 13076 5459 10006 2176 9527 8895 73936 5188 9911 9017 4454
is_linear=0
shrinkage=0.05


Tree=16
num_leaves=31
num_cat=0
split_feature=14 14 14 14 13 13 13 9 10 13 9 7 9 12 4 1 13 9 9 12 4 4 3 4 9 6 13 9 3 13
split_gain=1959.04 356.586 155.266 86.6282 48.3962 39.0633 32.392 28.9439 23.1976 20.4795 18.8703 17.3614 16.624 13.2961 13.0155 11.5 10.2631 9.64273 9.50363 9.37982 8.90032 8.45668 8.20131 8.08531 8.03812 7.72213 6.80037 6.6202 6.48663 6.47077
threshold=0.54295498890861027 1.0750304918818905 -0.14029817150443943 1.4415684071053183 0.58505351424184504 0.35473290717705847 1.6306285024476768 0.10445386875417238 0.35074375220963766 2.1924537536256659 1.2029250912015719 1.492833573530389 0.39004360979023028 -0.60965386635790464 4.2702410672491817 3.84590474783294 0.9885542368790089 0.085892194045595824 0.34833079667244754 -0.57686479524068568 4.4963529496154484 3.3809743068235498 1169.0000000000002 4.356070704742355 0.1489350211991918 2019.5000000000002 0.2452318214484773 1.6385123800159811 1039.0000000000002 2.3258592530999622
decision_type=2 2 2 2 2 2 2 2 2 2 2 2 2 2 2 2 2 2 2 2 2 2 2 2 2 2 2 2 2 2
left_child=2 4 7 6 14 13 12 21 18 10 20 27 22 -4 19 -14 -7 -15 -5 -2 -6 -1 -3 -8 -21 -18 -9 -10 -16 -13
right_child=1 3 5 8 9 16 23 26 11 -11 -12 29 15 17 28 -17 25 -19 -20 24 -22 -23 -24 -25 -26 -27 -28 -29 -30 -31
leaf_value=-0.055373266768522326 -0.024363586705916915 0.011886540916646761 -0.043089381658982052 0.008085309052087061 -0.00016117197134919841 -0.016264059475960383 0.020085782642775753 -0.038234812988176041 0.026913856379218889 0.026052270506202381 0.01513398970178575 0.038695079866894549 0.014943950242768953 -0.032895223828967333 0.0084287339430599521 0.027061682988968095 0.01306081000540891 -0.021682730309987328 0.0279186299283391 -0.017525075955363036 0.016283910636687309 -0.045295413104505973 -0.0038442937182143334 0.030922148709699362 -0.0047495340857630162 -0.012318055227042914 -0.017999887704801917 0.042497552388305902 -0.0065824968241167932 0.048226271709851637
leaf_weight=667.22005483621615 121.46880842208338 190.03188299312023 153.8912193824217 80.173792499001138 923.94885239063296 332.41596484741603 255.68231971212663 301.35749951473554 335.07624188950285 122.14582460526435 325.85049585904926 407.89499494433403 859.72604499489535 364.0412218321726 143.81065987316833 253.53174408033374 62.008144505671225 405.15659505693475 244.89837498730049 184.93811382824788 90.318787810392678 302.5564826571499 146.90817108144984 526.78977250866592 368.35065018768364 58.017315884440904 48.156142364037805 85.550755944103003 144.05312340747332 316.05342465266585
leaf_count=74163 11737 3467 23539 884 26222 19011 3131 26158 2924 1316 7739 2638 13592 27142 4269 3858 1796 26140 2181 7371 1249 30363 2299 3944 13595 1945 2446 684 3584 1437
internal_value=-3.41578e-12 0.0156258 -0.0355282 0.0253875 0.000721424 -0.0237744 0.0191823 -0.0477831 0.0348144 0.00645261 0.00466619 0.0381622 0.0147585 -0.0296734 -0.0079845 0.0177036 -0.011739 -0.0269893 0.0230271 -0.011782 0.00130323 -0.0522291 0.00502779 0.0273812 -0.00901979 0.000793299 -0.0354468 0.0300834 0.000916797 0.0428561
internal_weight=8822.02 6127.2 2694.82 3702.32 2424.89 1375.53 2232.67 1319.29 1469.65 1462.26 1340.12 1144.58 1450.2 923.089 962.621 1113.26 452.441 769.198 325.072 674.758 1014.27 969.777 336.94 782.472 553.289 120.025 349.514 420.627 287.864 723.948
internal_count=350824 118121 232703 41039 77082 99573 30291 133130 10748 36526 35210 7683 23216 76821 40556 17450 22752 53282 3065 32703 27471 104526 5766 7075 20966 3741 28604 3608 7853 4075
is_linear=0
shrinkage=0.05


Tree=17
num_leaves=31
num_cat=0
split_feature=14 14 14 14 0 7 9 9 0 10 9 9 4 9 0 12 7 9 0 12 9 4 9 4 0 5 0 14 4 6
split_gain=1768.37 330.416 148.009 71.9729 47.4381 45.9791 28.3175 23.7818 25.1507 22.5488 21.2314 18.8888 15.3188 15.3064 12.8496 11.7846 10.9078 10.8652 9.7585 9.19385 9.14514 8.29809 8.25148 7.86815 7.10934 6.84092 6.68025 6.37838 6.35684 5.99
threshold=0.54295498890861027 1.1264659821017495 -0.14029817150443943 1.4712341625792613 419.50000000000006 0.98700386110918548 0.10445386875417238 1.0974912065950218 536.50000000000011 0.31049879441084488 0.98661756333144235 0.35643499291442876 4.356070704742355 0.91150822546400301 240.50000000000003 1.7016216524450514 1.492833573530389 0.10445386875417238 244.50000000000003 1.5881626821378736 1.4409912740965518 3.3809743068235498 0.77284597961125623 4.550689078200481 107.50000000000001 0.58325661360007042 269.50000000000006 0.87240240759991172 4.3628866697821627 2014.5000000000002
decision_type=2 2 2 2 2 2 2 2 2 2 2 2 2 2 2 2 2 2 2 2 2 2 2 2 2 2 2 2 2 2
left_child=2 5 6 9 11 7 21 8 17 23 19 18 -11 14 25 -14 -12 -2 -4 28 -13 -1 -6 -3 -23 -7 29 -10 -5 -8
right_child=1 3 4 10 22 13 26 -9 27 12 16 20 15 -15 -16 -17 -18 -19 -20 -21 -22 24 -24 -25 -26 -27 -28 -29 -30 -31
leaf_value=-0.054387862287993728 -0.011646054358615876 0.0066717801569852429 -0.018569984813261501 0.011793297622139808 -0.041736425985372257 0.034465594879174555 -0.017579420670684087 0.0081634776678031536 -0.029398927816900497 0.016020143317075582 0.031334574636609706 -0.01130896782282053 0.023911896108354834 0.016764241151784025 -0.0019636678155316779 0.039149583596877341 0.043666746622299475 -0.00034127717154760042 -0.032810249072333347 0.041961000496557981 0.01513216998440136 -0.026135396492458853 -0.022848446352288502 0.023492219420211478 -0.047573779253782554 0.0096815919515506332 -0.042793588234142234 -0.011383198105387113 0.026725513740688513 -0.035292067358110135
leaf_weight=634.42119358527998 297.30048773065209 372.47263034473872 377.01858311798424 92.440196983050555 298.08275365327427 30.964193286374211 77.283729995135218 340.75939694902627 129.71394861009321 587.05656225595158 267.48517360095866 385.90808196226135 838.16344319301425 455.33308221324114 336.51989787255297 149.5220297568012 543.93036915175617 745.56796054227743 176.6862009447068 78.968990941531956 35.729360150173306 45.92733671143651 71.73922543162189 85.479966838145629 244.75862134194176 276.19133623875678 137.86861080322706 79.083253983975737 311.28374587534927 124.82126563263591
leaf_count=74163 8641 6529 11128 1037 49224 276 3095 11588 17065 9196 2367 14120 8268 8365 9908 1174 3061 18163 13252 555 1062 1164 10787 931 29199 2663 20691 5947 2387 4818
internal_value=-6.96779e-11 0.0149072 -0.0343703 0.0254448 -0.0228239 0.00188188 -0.0466476 -0.00354724 -0.00673542 0.0195768 0.0346619 -0.0170421 0.0224167 0.00974849 0.00478558 0.0262187 0.0396014 -0.00356404 -0.023114 0.0263584 -0.00906836 -0.0511824 -0.0380725 0.00981143 -0.0441866 0.0121801 -0.0343077 -0.0225754 0.0233065 -0.0285189
internal_weight=8628.48 6018.24 2610.24 3326.8 1345.16 2691.43 1265.08 1592.43 1251.67 2032.69 1294.11 975.342 1574.74 1099.01 643.675 987.685 811.416 1042.87 553.705 482.693 421.637 925.107 369.822 457.953 290.686 307.156 339.974 208.797 403.724 202.105
internal_count=350824 118121 232703 35505 99573 82616 133130 61404 49816 26098 9407 39562 18638 21212 12847 9442 5428 26804 24380 3979 15182 104526 60011 7460 30363 2939 28604 23012 3424 7913
is_linear=0
shrinkage=0.05


Tree=18
num_leaves=31
num_cat=0
split_feature=14 14 14 0 4 7 7 0 14 10 10 10 10 3 14 0 8 14 11 0 4 5 12 7 14 1 11 1 5 5
split_gain=1599.71 261.101 203.057 44.9172 38.6844 33.6814 32.5045 24.3888 19.4992 17.6115 16.3135 14.4434 13.4045 12.4387 11.8508 11.542 10.0907 10.051 8.54449 8.26676 7.7208 7.6684 7.55484 6.92372 6.89999 6.69806 6.60661 5.91194 5.73786 5.65721
threshold=0.7618706267152453 0.071032908582607537 1.2909753252599945 454.50000000000006 4.3383814860636063 -0.36977670197020795 1.492833573530389 256.50000000000006 0.44004751580881185 0.44953795327928769 0.63794859358674438 0.28865077176608961 0.55443522135613399 740.50000000000011 1.415398167901057 148.50000000000003 -0.173420355390036 0.47426052008728864 -0.5426647397501122 615.00000000000011 4.369512233309675 0.92216443552399141 1.8584147852123147 0.5025985721195847 -1.7874568150013788 3.6977929375842109 0.48027916797123626 3.3780733191847196 0.92632582130956331 0.7294182632857954
decision_type=2 2 2 2 2 2 2 2 2 2 2 2 2 2 2 2 2 2 2 2 2 2 2 2 2 2 2 2 2 2
left_child=1 5 4 8 9 15 12 28 23 19 13 -8 20 -6 -13 24 -12 -5 -10 -2 -4 -20 27 -3 -1 -15 -11 -14 -7 -28
right_child=2 3 6 17 10 7 11 -9 18 26 16 14 22 25 -16 -17 -18 -19 21 -21 -22 -23 -24 -25 -26 -27 29 -29 -30 -31
leaf_value=-0.057355572169389468 0.00018345324956665649 -0.020419797432706194 0.011775631568458877 -0.036819038528226523 0.023388823832535287 -0.025578156385931888 0.020892669622011528 -0.042846820341766373 -0.014750139912853967 0.0039680531172927788 -0.084907325524855679 0.024849700264877695 0.016797484746921464 0.0038775004789356436 0.039694399878149239 -0.051605638376697974 0.025401574990343945 -0.021109439082821788 -0.0038567184622811425 -0.013559482447304977 0.022628141325689868 0.016335614333026948 0.046418865613232739 -0.0080968914573940811 -0.034600016354292072 0.013019420425373785 0.0066993027873344761 0.030209103379288893 -0.0065417618084196612 0.018659159141819433
leaf_weight=40.533984207781032 623.01309511106228 413.28990348894149 276.31242276722332 201.21634312419337 186.31658599013463 224.97698586503975 160.70700217899866 302.17961693405232 173.32851516688243 415.27639410109259 2.086765286512672 162.6951334849 109.73838860075921 352.64863014366711 774.27843933086842 704.9549998427392 318.76237843354465 206.10893626176403 575.74078235693742 132.73893638697336 402.7850874295691 51.200141915935092 55.533277530223131 157.39689904521219 186.99800348776625 463.97363742743619 187.94284268235788 327.06690186145715 48.035823102400173 208.64063016229193
leaf_count=1549 14835 18896 4115 34382 3629 9059 1384 46924 5181 9569 15 1278 1071 5479 4674 95353 3618 25373 15848 10069 4069 1356 418 5164 6253 6685 4792 3253 1780 4753
internal_value=1.09897e-10 -0.0272689 0.0173635 -0.0142912 0.00857719 -0.0425759 0.0285594 -0.0330605 -0.00995978 0.00326255 0.0148707 0.0347415 0.0227665 0.0117313 0.0371168 -0.0484453 0.0246841 -0.0288699 -0.00492422 -0.00223033 0.0182125 -0.00220768 0.0290481 -0.0170211 -0.0386538 0.00907159 0.00837581 0.0268397 -0.0222288 0.0129913
internal_weight=8446.48 3285.96 5160.52 1778.28 2891.4 1507.68 2269.12 575.192 1370.96 1567.61 1323.79 1097.68 1171.44 1002.94 936.974 932.487 320.849 407.325 800.269 755.752 679.098 626.941 492.339 570.687 227.532 816.622 811.86 436.805 273.013 396.583
internal_count=350824 267118 83706 106200 63444 160918 20262 57763 46445 44018 19426 7336 12926 15793 5952 103155 3633 59755 22385 24904 8184 17204 4742 24060 7802 12164 19114 4324 10839 9545
is_linear=0
shrinkage=0.05


Tree=19
num_leaves=31
num_cat=0
split_feature=14 14 14 13 13 0 14 4 13 13 0 14 13 0 13 4 3 4 3 10 13 3 0 6 11 0 13 13 7 6
split_gain=1439.97 285.69 135.793 68.7176 46.2521 40.1529 27.0827 22.7941 20.9776 20.5277 18.3323 15.072 14.0115 13.2187 11.6289 11.375 10.5611 10.0459 9.88843 8.92047 8.76675 8.53712 10.8912 7.80583 7.70363 7.56755 7.23381 7.21801 6.59045 6.16782
threshold=0.54295498890861027 1.1264659821017495 -0.15224280929001924 1.9284876808746081 1.2030613143551288 419.50000000000006 1.4415684071053183 4.1662376793830758 -0.02885746250040688 0.35473290717705847 611.50000000000011 1.415398167901057 0.41132675518410661 148.50000000000003 2.1924537536256659 4.6320405374588054 1242.0000000000002 4.369512233309675 1299.0000000000002 0.7431221698189131 0.22081135614789035 734.50000000000011 36.500000000000007 2016.5000000000002 -0.55394004668001229 224.50000000000003 0.26914009778140013 0.44153043175501355 -0.92469662244937767 2022.5000000000002
decision_type=2 2 2 2 2 2 2 2 2 2 2 2 2 2 2 2 2 2 2 2 2 2 2 2 2 2 2 2 2 2
left_child=2 4 8 6 7 9 12 10 13 25 26 -5 18 28 23 -14 17 -9 -3 -13 -8 22 -11 -6 -22 -4 -2 -7 -1 -16
right_child=1 3 5 11 14 27 20 16 -10 21 -12 19 15 -15 29 -17 -18 -19 -20 -21 24 -23 -24 -25 -26 -27 -28 -29 -30 -31
leaf_value=-0.045638575879938775 -0.012823228322990527 0.0077650636951909109 -0.01677615346727802 0.026141084747496868 0.013810193038905866 -0.039183656118555177 0.0020893203552987683 0.0022272455715619949 -0.027340569514611324 0.063454979506754175 -0.02690939036768249 0.034213473918388235 0.015208359338002776 -0.050458999756315792 0.031451468418694194 0.039759718733931824 -0.0039061704730010884 0.016630184685357804 -0.019292296468458411 0.046278666141020414 0.015405333883767844 -0.0095781524251228635 0.0025537973315472584 0.0027207893751099374 0.02956194637306386 -0.028179349557344732 -0.0025047633218475366 -0.021360935401786948 -0.028644330556485777 0.0091183694511136979
leaf_weight=109.27198896760819 254.39139776592492 154.38141097361222 373.56287193309981 402.03326186875347 339.2107569295913 279.29214735237474 36.384237086749636 386.49570623740146 151.27333002060186 8.545771010220049 120.57205873557541 446.36408800538629 1127.3704224831308 769.22849713212054 97.868853761086939 49.238594524562359 397.61772173596546 176.28885175587493 43.220846810319927 233.25860963203013 114.78045649873093 276.70022302708821 52.080622398061678 298.18080297371489 590.42199579509906 238.30745003756601 511.13206909112341 71.313046143564861 119.3718818963971 45.190266691148281
leaf_count=4170 9084 2862 11502 3475 5680 50854 473 13837 12472 36 17590 2699 17007 111101 1089 426 9598 3949 675 1217 1169 8014 1576 6490 5502 18989 14753 10017 3972 546
internal_value=3.09811e-11 0.013526 -0.0321693 0.0235633 0.00130893 -0.0210988 0.0183224 -0.00300435 -0.0446912 -0.0157578 -0.00878788 0.033815 0.0141668 -0.0473215 0.0115139 0.0162358 0.0023317 0.00673888 0.0018469 0.0383545 0.0260229 -0.00585487 0.0111383 0.00862241 0.0272578 -0.0212174 -0.0059337 -0.0355585 -0.0367661 0.0243968
internal_weight=8273.35 5824.4 2448.95 3197.45 2626.95 1299.8 2115.8 1846.5 1149.15 949.197 886.096 1081.66 1374.21 997.872 780.451 1176.61 960.402 562.785 197.602 679.623 741.587 337.327 60.6264 637.392 705.202 611.87 765.523 350.605 228.644 143.059
internal_count=350824 118121 232703 35505 82616 100988 28114 68811 131715 40117 41427 7391 20970 119243 13805 17433 27384 17786 3537 3916 7144 9626 1612 12170 6671 30491 23837 60871 8142 1635
is_linear=0
shrinkage=0.05


Tree=20
num_leaves=31
num_cat=0
split_feature=14 14 14 13 13 13 14 4 13 4 10 11 10 5 10 4 13 4 13 3 13 4 3 11 6 10 3 4 12 12
split_gain=1311.7 262.233 126.809 66.1702 41.1344 31.473 24.6851 19.0836 18.3825 15.2947 12.1664 11.8826 10.9173 10.2844 9.55253 9.51974 9.17121 8.24652 8.21332 7.76694 7.5357 7.32322 6.82909 6.75216 6.41972 6.2823 6.27723 6.14498 5.45462 5.31405
threshold=0.54295498890861027 1.2732919433781829 -0.19747366800589791 0.92925527512843697 1.9284876808746081 0.35473290717705847 0.94267950034867742 4.369512233309675 -0.02885746250040688 4.5055727554179574 0.7431221698189131 0.21221228345691098 0.4526678217082068 0.90622857067896301 0.63794859358674438 3.3498128465481365 1.422942003503084 3.778580132333258 0.9885542368790089 970.50000000000011 0.51531111163919496 4.356070704742355 744.50000000000011 0.83301613012055065 2019.5000000000002 0.39429334733100169 625.50000000000011 4.6593692383929817 -0.5834658654134538 -0.68626002330569547
decision_type=2 2 2 2 2 2 2 2 2 2 2 2 2 2 2 2 2 2 2 2 2 2 2 2 2 2 2 2 2 2
left_child=2 3 8 6 9 12 11 13 15 20 21 -2 17 16 22 -1 -5 -4 26 25 -3 -6 -9 -8 -20 -11 -7 -21 -22 -13
right_child=1 4 5 7 10 18 23 14 -10 19 -12 29 -14 -15 -16 -17 -18 -19 24 27 28 -23 -24 -25 -26 -27 -28 -29 -30 -31
leaf_value=-0.050329287425485196 -0.013072719687743437 0.0050313169681660058 -0.035763628217920305 0.00045607428161708398 0.019383406383574428 0.0014811344196287808 0.0014014999670397821 0.034127829017012494 -0.026680316490250405 0.024877841114247994 0.043140150496705061 -0.018841424464994688 -0.017463965857453866 0.02366328443073655 0.027364470917785107 -0.039592442751004424 0.010609290378529 -0.024402132096865582 0.013279859272644676 0.020112682520776911 0.011041369295600329 0.033276817784384148 0.012362682949436002 0.011612849312848512 -0.010788624086582347 0.041211273522896441 -0.017132738451595422 0.043160981717904473 0.021106159905752396 -0.0009225880665500836
leaf_weight=610.09775584210001 484.20836714259349 125.55712516081985 300.73707896981796 447.19272695029213 118.09393526613712 54.916730492404895 542.17768532276386 39.36801264830865 131.00644294213271 107.04920052364469 281.58915019966662 45.005993745769956 252.9604461563722 85.476896873035002 195.84469404432457 312.03792244660144 442.48224812233821 340.59046658505395 58.834566876466852 322.50067056133412 185.00630168459611 481.82616826705635 426.26557585044065 230.80472597136395 52.362319262843812 130.8096164278686 258.47133362422755 31.767596073448658 494.2303074686788 512.9543824774446
leaf_count=79850 22622 1959 36002 12527 1067 3663 12608 569 10972 1109 1654 5429 16238 1947 2020 35443 7870 31023 1825 2787 3276 2934 5606 6123 1980 1049 15707 213 5568 19184
internal_value=-7.41194e-11 0.0129437 -0.0312689 0.00425362 0.0261091 -0.0209382 -0.00231991 0.0115442 -0.0442062 0.0207723 0.0345663 -0.00734156 -0.0262603 0.0070974 0.0180996 -0.0466961 0.0055058 -0.0297299 -0.00972853 0.0268717 0.0162846 0.0305419 0.0142029 0.00445051 0.00194607 0.0338604 -0.0138709 0.0221794 0.0183648 -0.00236795
internal_weight=8102.23 5730.21 2372.02 3451.78 2278.43 1318.87 1815.15 1636.63 1053.14 1396.92 881.509 1042.17 894.288 975.152 661.478 922.136 889.675 641.328 424.585 592.127 804.794 599.92 465.634 772.982 111.197 237.859 313.388 354.268 679.237 557.96
internal_count=350824 118121 232703 96505 21616 106438 65966 30539 126265 15961 5655 47235 83263 22344 8195 115293 20397 67025 23175 5158 10803 4001 6175 18731 3805 2158 19370 3000 8844 24613
is_linear=0
shrinkage=0.05


Tree=21
num_leaves=31
num_cat=0
split_feature=14 14 14 9 13 13 0 9 4 9 4 9 0 0 12 13 9 13 0 0 4 3 4 9 4 13 12 11 4 0
split_gain=1197.44 238.669 148.319 52.6596 39.9343 31.0481 28.6564 25.487 24.7364 20.3425 19.9829 14.7909 13.4774 13.0391 11.269 11.1711 10.7777 10.3931 8.8641 7.72126 9.77944 7.28393 7.22741 7.1684 6.76248 6.63893 6.4589 5.89743 5.69128 5.54041
threshold=0.80723465769249148 0.2053177068628915 1.3467078606867866 0.2727816544158374 1.5841509667159925 1.9284876808746081 536.50000000000011 1.1416426023819819 3.3809743068235498 0.10445386875417238 4.5131113657757957 0.66847070822411847 244.50000000000003 224.50000000000003 1.9234464004550247 0.10115157953527219 1.2910462313846534 1.0766565073547674 154.50000000000003 436.50000000000006 4.1487513126804947 970.50000000000011 4.6320405374588054 1.2910462313846534 4.356070704742355 0.35473290717705847 1.830841560622096 0.4918881551842787 4.4963529496154484 280.50000000000006
decision_type=2 2 2 2 2 2 2 2 2 2 2 2 2 2 2 2 2 2 2 2 2 2 2 2 2 2 2 2 2 2
left_child=1 3 4 8 7 11 9 10 -1 18 13 19 -10 -2 22 29 27 -8 25 20 -4 -12 -13 -7 -6 -3 -26 -11 -9 -5
right_child=2 6 5 15 24 23 17 28 12 16 21 14 -14 -15 -16 -17 -18 -19 -20 -21 -22 -23 -24 -25 26 -27 -28 -29 -30 -31
leaf_value=-0.049976017348744642 0.0061618790483259304 -0.015027303073205756 -0.015382569695120871 -0.022077774057445675 0.013501488942391882 0.030568749936542874 -0.029155883844961129 0.012063751950506716 -0.026866559971294952 -0.0088939157258863168 0.02671660399781764 0.022027356398420888 -0.042679569847386814 -0.0041308042245326929 0.04532735900868845 -0.011231204308337454 0.0097005461282284391 -0.0029074358389467357 -0.022159868053834339 0.00020961677688970909 0.020909152553372282 0.0085613085456045252 0.039400758578712142 0.040374583906383481 0.020720555836284744 0.0079710593330765411 0.039162051986700974 -0.00039293433826957831 0.024879520777802071 -0.036523397890973558
leaf_weight=604.10316946431703 496.47688762564212 83.424352388246916 20.399905925383791 153.36646912537981 326.80315882852301 399.32737647369504 233.685124956246 505.86672398957307 253.97648862289498 521.6583118892886 91.299553282151464 603.32680681475904 287.03042537163128 809.25677451615047 66.527873795479536 147.71010480099358 133.57585002522683 44.969102476839907 265.73471823174623 88.297505155322142 206.10274106753059 139.8998879607534 66.456027921289206 349.49777208454907 381.063614849234 50.298906844109297 54.2373615372926 335.05216444538382 104.52886193396989 117.02189688190992
leaf_count=83100 5981 1755 229 6952 5281 2710 40833 11615 11354 17777 1329 6796 48037 28941 517 10331 3646 3030 14797 1692 1708 1931 506 2015 3812 684 440 11308 1331 20386
internal_value=-9.92831e-11 -0.0234386 0.0160838 -0.0374764 0.00910445 0.0273652 -0.0102858 0.00561468 -0.0430216 -0.00735159 0.00218181 0.0218224 -0.0352561 -0.000217235 0.0257006 -0.022289 -0.00350957 -0.0249199 -0.0168763 0.0127514 0.0176405 0.0157307 0.0237511 0.0351454 0.0189373 -0.00637666 0.0230183 -0.00556925 0.0142584 -0.0283297
internal_weight=7940.98 3231.61 4709.37 1563.21 2909.43 1799.94 1668.4 2147.33 1145.11 1389.74 1536.93 1051.11 541.007 1305.73 736.311 418.098 990.286 278.654 399.458 314.8 226.503 231.199 669.783 748.825 762.104 133.723 435.301 856.71 610.396 270.388
internal_count=350824 273990 76834 180160 60661 16173 93830 51128 142491 49967 38182 11448 59391 34922 7819 37669 32731 43863 17236 3629 1937 3260 7302 4725 9533 2439 4252 29085 12946 27338
is_linear=0
shrinkage=0.05


Tree=22
num_leaves=31
num_cat=0
split_feature=14 14 14 14 13 0 13 13 10 13 0 0 4 6 7 13 3 10 11 4 11 6 13 4 13 13 13 13 11 4
split_gain=1085.31 226.682 117.425 59.0197 35.2701 34.4514 21.5063 20.0227 18.0855 15.8627 15.8061 14.4539 13.3973 10.7787 10.2342 9.59087 7.96897 7.8247 7.67749 7.63863 7.57734 7.49654 7.45586 7.26559 7.21718 7.08134 5.93607 5.74129 5.68403 5.48563
threshold=0.54295498890861027 1.099883182267392 -0.29466176368322433 1.4712341625792613 0.58505351424184504 419.50000000000006 1.6306285024476768 0.14446791615411594 0.40687629575624634 2.1924537536256659 148.50000000000003 604.50000000000011 4.5131113657757957 2014.5000000000002 1.492833573530389 0.22081135614789035 970.50000000000011 0.31049879441084488 -0.26556018348345406 2.6885744880031806 0.23376510291532598 2013.5000000000002 0.44153043175501355 4.5583752382751301 1.1232845293903042 -0.30910958012244644 2.3258592530999622 2.9741727069211916 0.33907167769089219 4.356070704742355
decision_type=2 2 2 2 2 2 2 2 2 2 2 2 2 2 2 2 2 2 2 2 2 2 2 2 2 2 2 2 2 2
left_child=2 4 10 6 11 7 12 28 15 13 19 20 17 18 -10 -5 -14 -3 -6 -1 -2 24 -7 -17 -9 -12 -16 29 -4 -8
right_child=1 3 5 8 9 22 27 21 14 -11 25 -13 16 -15 26 23 -18 -19 -20 -21 -22 -23 -24 -25 -26 -27 -28 -29 -30 -31
leaf_value=-0.049879765721403346 -0.010127140064316109 0.0015743194743005583 -0.026335786409677167 -0.015242159474259762 -0.00054936796626257986 -0.036593989255441682 0.014581386107370489 -0.0033027497440943606 0.025871234433531599 0.022357918191811172 -0.050208427346176789 -0.024612872564032263 0.029677439543265086 -0.0014512782998102158 0.032907597961357386 0.016315518284695466 0.013959075098066443 0.011540537869486034 0.010789221812047358 -0.02742526362322838 -0.00055659478544628699 -0.013082669715508505 -0.018429308960016107 0.032795895968576121 0.030866094784112293 -0.037586947862442405 0.043381862826963727 0.037472242125269936 -0.015522623308153051 0.024446189971231717
leaf_weight=48.043564798310399 391.98235426502652 274.96998156886548 312.75561128382105 18.597372069896664 207.93298115683137 299.40988508416922 210.33458584715845 176.97634874132928 283.63678460440133 122.40253209343064 514.83401723339921 106.88169337625732 135.36862345325062 595.80607107875403 303.69594103470445 202.75349244335666 199.43326086841989 694.0690638369706 529.38966197270202 178.94031476718374 437.81150259509741 282.84089241991751 69.628567296167603 99.793051091954112 16.932852494996041 141.72281462879619 243.90123959630728 59.172806907678023 198.77157173445448 427.05449800565839
leaf_count=2050 12546 5951 18937 289 6079 60488 2876 6329 2639 1471 84669 15878 1598 17641 2210 2182 2276 11965 13270 6594 12949 10049 10315 789 298 21939 1298 440 11035 3774
internal_value=6.73231e-11 0.0118673 -0.0293655 0.0206733 0.000261452 -0.020131 0.015481 -0.0152632 0.0296866 0.00513177 -0.0435518 -0.0073067 0.0116917 0.00355014 0.03358 0.0196092 0.0203144 0.00871257 0.00759162 -0.032178 -0.00507758 -0.00789129 -0.0331668 0.0217515 -0.000319003 -0.047484 0.0375729 0.022574 -0.022134 0.0211909
internal_weight=7785.84 5544.99 2240.86 3152.78 2392.21 1357.32 2000.4 988.277 1152.38 1455.53 883.541 936.676 1303.84 1333.13 831.234 321.144 334.802 969.039 737.323 226.984 829.794 476.75 369.038 302.547 193.909 656.557 547.597 696.562 511.527 637.389
internal_count=350824 118121 232703 38287 79834 117451 28880 46648 9407 38461 115252 41373 21790 36990 6147 3260 3874 17916 19349 8644 25495 16676 70803 2971 6627 106608 3508 7090 29972 6650
is_linear=0
shrinkage=0.05


Tree=23
num_leaves=31
num_cat=0
split_feature=14 14 14 13 13 0 4 13 4 0 14 0 3 10 3 13 3 13 10 13 12 0 14 6 13 0 10 13 11 0
split_gain=983.297 207.546 112.427 55.461 32.3702 31.6081 25.3806 19.2829 17.4187 14.0964 14.079 12.3608 11.3329 10.7407 9.66059 8.82006 7.87624 7.58175 7.57192 7.54543 7.26249 7.04527 6.96414 6.94157 6.43663 6.10936 6.03112 5.94145 5.61921 5.32219
threshold=0.54295498890861027 1.099883182267392 -0.33407524863797305 1.9284876808746081 1.3219748574871064 419.50000000000006 4.4568058211502484 0.12274731056446807 4.1662376793830758 148.50000000000003 1.415398167901057 611.50000000000011 1002.5000000000001 0.41636626000858817 1169.0000000000002 0.29344758520871078 1308.5000000000002 0.28537027925287756 0.7431221698189131 2.1924537536256659 1.8584147852123147 154.50000000000003 -1.7874568150013788 2013.5000000000002 -0.30910958012244644 36.500000000000007 0.29818686984123033 1.1232845293903042 0.18040272041725378 280.50000000000006
decision_type=2 2 2 2 2 2 2 2 2 2 2 2 2 2 2 2 2 2 2 2 2 2 2 2 2 2 2 2 2 2
left_child=2 4 9 6 8 7 13 29 11 22 -5 28 20 16 21 -14 -3 -7 -12 -6 -8 -10 -1 25 -11 -9 -16 -15 -2 -4
right_child=1 3 5 10 19 17 12 23 14 24 18 -13 15 27 26 -17 -18 -19 -20 -21 -22 -23 -24 -25 -26 -27 -28 -29 -30 -31
leaf_value=-0.053383753420692084 -0.01048122590223124 0.0085859149046087022 -0.018992998065632073 0.022145789174489682 0.0075795621218488173 -0.036605940697532029 0.025521564080076609 0.038099572992179219 0.018004804568247334 -0.049653071473682753 0.030246911937228938 -0.0231981502156305 -0.0075742886880536889 0.009193501911297362 -0.012490760673065477 0.018494529006193926 -0.0056789472998347995 -0.020590704147269431 0.041979798606918542 0.021620884347552719 0.046937997069487938 0.0033668907559835609 -0.028160856093446675 -0.012945217994664228 -0.036879694583898774 -0.0028236355796521038 0.00015474676197355122 0.018575454469570842 -0.0017986969737999129 -0.031008706528707748
leaf_weight=32.301025067921728 347.5223959194991 315.78438997102785 379.1318328352063 390.22023577557411 445.33744960383046 265.7614443168568 314.20578406495042 9.5713115348480624 104.92166818818077 478.33739190832421 396.11829369049519 118.59407720052695 34.396855556755327 319.67552872066153 134.81538193474989 572.25313658430241 139.51926678500604 102.36371372871508 210.62968432717025 121.85717615904287 45.290996797382832 379.6040645094763 179.1350569773349 290.48086530109867 124.24142154912988 193.43235338560771 313.67333448087447 357.43310836399905 401.79689245202462 121.75292737456039
leaf_count=1558 11841 6861 16651 3763 8613 56259 3683 71 1233 82686 2699 17928 464 5456 3880 5985 2552 17076 1217 1471 380 14914 6815 10649 20025 7066 7620 5227 12334 13847
internal_value=1.56e-11 0.0113214 -0.0284199 0.019845 0.000179704 -0.0196363 0.015232 -0.0150026 -0.00310094 -0.0431219 0.0295549 -0.00819936 0.0211851 0.010153 0.00164175 0.0170164 0.00421472 -0.0321526 0.0343199 0.0105962 0.0282197 0.00653666 -0.0320142 -0.0079878 -0.0470194 -0.000894169 -0.00364648 0.0141461 -0.00582552 -0.0219137
internal_weight=7640.16 5463.65 2176.51 3095.53 2368.12 1362.49 2098.56 994.369 1800.93 814.015 996.968 867.913 966.147 1132.41 933.014 606.65 455.304 368.125 606.748 567.195 359.497 484.526 211.436 493.485 602.579 203.004 448.489 677.109 749.319 500.885
internal_count=350824 118121 232703 38287 79834 121619 30608 48284 69750 111084 7679 42103 10512 20096 27647 6449 9413 73335 3916 10084 4063 16147 8373 17786 102711 7137 11500 10683 24175 30498
is_linear=0
shrinkage=0.05


Tree=24
num_leaves=31
num_cat=0
split_feature=14 14 14 14 4 7 4 0 0 12 14 12 0 0 5 3 11 5 11 4 7 11 14 0 5 14 4 11 0 11
split_gain=890.282 179.732 133.796 30.1313 29.7327 24.6712 18.7043 14.9833 14.7292 13.7846 12.3574 10.4178 10.0941 7.78533 7.75031 7.41369 7.3157 6.39191 6.38948 6.34639 6.11459 5.94279 5.60298 5.6473 5.38694 5.20354 5.12693 4.67098 6.76288 4.36172
threshold=0.7618706267152453 -0.12911679174452914 1.3467078606867866 0.33332628568667516 4.369512233309675 1.492833573530389 3.3498128465481365 428.50000000000006 229.50000000000003 1.830841560622096 1.0396943708048652 1.8584147852123147 201.50000000000003 734.50000000000011 0.97847919620035528 1329.0000000000002 0.21221228345691098 0.77744692593177456 -1.0000000180025095e-35 4.1054122383068403 0.66772968095777674 -1.2822077862638652 -1.2067012789125489 182.50000000000003 0.82036101380515059 1.4415684071053183 4.1584446555319685 1.5009829994863335 220.50000000000003 1.0100854484643633
decision_type=2 2 2 2 2 2 2 2 2 2 2 2 2 2 2 2 2 2 2 2 2 2 2 2 2 2 2 2 2 2
left_child=1 6 4 7 10 11 22 16 14 15 18 20 -8 29 19 -6 -3 -17 -2 -5 -4 -7 -1 -24 -20 -23 -18 -12 -29 -10
right_child=2 3 5 8 9 21 12 -9 13 -11 27 -13 -14 -15 -16 17 26 -19 24 -21 -22 25 23 -25 -26 -27 -28 28 -30 -31
leaf_value=-0.050512302228541431 -0.0064152902539019009 -0.02247870594257767 -0.0111110358975597 -0.0083546472835929978 0.01609979143296485 0.013219431316985178 -0.022273998193392555 -0.033578626703995036 -0.013219418562116459 0.028739481168991245 0.0061592031076404558 0.035617339197318083 -0.038382829431245838 -0.026770303711816729 0.025302567037622594 0.0061221177709853882 -0.013260162259427716 0.024485914358903595 -7.6406551957801554e-05 0.0029822170421265727 0.017311915852739664 0.022361306176267335 -0.029277939117440449 -0.04494936107092988 0.011899693245186395 0.033250515514553595 0.0088979124432041253 0.045709839441275213 0.011340898467759026 -0.0020844572989021197
leaf_weight=281.76601713943819 337.26790955741308 272.35249317035777 19.436596212734003 279.6980853312416 460.13307378411992 46.873161263763905 172.75084025983233 184.75842190659023 449.74854334031988 126.9503888511681 742.12891180353472 79.46974447928369 222.50422463321593 91.563901080196956 24.766780926845968 556.02195525297429 200.69651063915808 51.800038311630487 512.30903511465294 220.97718548751436 714.79739762976533 130.39180751517415 79.741646321490407 205.97506335997605 114.96850147716759 691.68748938653152 30.008969658811111 17.952565720304847 70.607645378418965 109.32499321941577
leaf_count=41339 11725 14819 335 6350 7865 403 7336 38890 30006 1446 15804 696 40954 19479 467 7649 10298 607 16768 4114 8495 1194 3823 41057 3641 5050 1091 164 1864 7095
internal_value=2.93494e-11 -0.02215 0.0133988 -0.0130887 0.00705201 0.0246773 -0.039693 -0.0214015 -0.008227 0.0131633 0.00298432 0.0184208 -0.0313423 -0.0132554 -0.00200044 0.0113118 -0.0169292 0.00768712 -0.000865408 -0.00335103 0.0165595 0.030536 -0.0455093 -0.0405756 0.00211859 0.0315234 -0.010378 0.0074544 0.018308 -0.011042
internal_weight=7499.43 2826.63 4672.8 1863.9 2990.14 1682.66 962.738 687.816 1176.08 1194.91 1795.23 813.704 395.255 650.637 525.442 1067.96 503.058 607.822 964.545 500.675 734.234 868.952 567.483 285.717 627.278 822.079 230.705 830.689 88.5602 559.074
internal_count=350824 267118 83706 132609 67533 16173 134509 65098 67511 17567 49966 9526 48290 56580 10931 16121 26208 8256 32134 10464 8830 6647 86219 44880 20409 6244 11389 17832 2028 37101
is_linear=0
shrinkage=0.05


Tree=25
num_leaves=31
num_cat=0
split_feature=14 14 14 9 9 9 0 0 9 14 14 7 4 5 14 4 7 9 9 10 5 4 7 9 0 9 10 5 1 0
split_gain=808.668 194.513 85.8357 48.136 33.8826 25.2836 23.5981 23.0069 19.7395 15.5603 15.2217 14.27 13.5346 10.8532 10.5701 7.40933 7.38517 7.33465 6.15 6.07629 5.64784 5.43376 5.27527 5.10933 4.93672 4.80613 4.61874 4.59752 4.56804 4.26258
threshold=0.47426052008728864 1.2399835547044076 -0.38745620522474228 0.88636280723650696 1.1416426023819819 1.0829959051684275 309.50000000000006 342.50000000000006 0.31482684356830132 0.7618706267152453 1.6335542459683283 1.0734970997523565 4.3628866697821627 0.81587500619630149 0.84464392878989003 4.5317578419358044 0.24189779947035428 0.39004360979023028 0.22057880264972146 0.62453538213445003 0.92632582130956331 3.3590311432430293 0.88702771006795011 1.1416426023819819 873.50000000000011 1.5599330090888317 0.6451806409673676 1.0988082569373676 3.6824463118580768 36.500000000000007
decision_type=2 2 2 2 2 2 2 2 2 2 2 2 2 2 2 2 2 2 2 2 2 2 2 2 2 2 2 2 2 2
left_child=2 3 8 7 12 6 16 9 21 -2 19 23 22 17 -9 -11 -4 -14 -8 -6 -18 -1 -3 -5 -16 -21 28 -24 -13 -7
right_child=1 4 5 11 10 29 18 14 -10 15 -12 26 13 -15 24 -17 20 -19 -20 25 -22 -23 27 -25 -26 -27 -28 -29 -30 -31
leaf_value=-0.048491236044657639 -0.0065531471617536865 -0.0052734490134194456 -0.020790934996889398 -0.00063040032691687306 0.019671350258407241 0.055974062589193053 -0.036059365936829894 -0.017326046972641711 -0.022926773836335249 0.0035307320611932046 0.037084068190214543 0.0065700274504426354 0.0095301422542392374 0.042958582440644717 -0.0030572281364488127 0.01877233551401495 -0.012286534348829885 0.020534608223756801 -0.023973827737557549 0.023219314288753467 0.012038270112845164 -0.037760368641330908 0.0093930764163906583 0.0082386134129218743 -0.019187157364532456 0.035260601768824139 0.022433372506874626 0.055008165636245956 0.017843909763345423 0.001634267835751764
leaf_weight=432.47367482923437 428.99349797534524 66.856535055616405 365.27884591475595 256.2168589370558 401.82466496468987 3.7430979213677338 259.59265959745971 289.98537812546419 114.90705910162069 760.56798901577713 305.90663479082286 168.67272708157543 207.21786237438209 44.534808025695384 386.81668224553869 89.074987845495343 253.66530660516582 562.32239975139964 177.06460798913031 178.70011439151131 26.340873243520036 162.22008512874891 299.31142219272442 443.42901198854088 54.066961867152713 154.52758469432592 177.13679505785694 5.627767630852758 192.27430458684103 100.66876731527736
leaf_count=71725 10823 1344 18277 10556 4637 30 50876 29139 12038 11773 2149 3172 2280 370 12881 956 8691 5633 29946 1986 798 21715 4439 14414 4639 1484 2966 60 3377 7650
internal_value=-5.8143e-11 0.0097472 -0.0281424 0.00194214 0.0211288 -0.0199145 -0.0221821 -0.00283554 -0.0418984 0.0012093 0.0277117 0.00969889 0.0153503 0.0189602 -0.00991187 0.00512863 -0.0161077 0.0175714 -0.0311587 0.0238112 -0.00999824 -0.0455641 0.0074462 0.0049907 -0.00503529 0.0288032 0.0158207 0.0102349 0.0125756 0.00358231
internal_weight=7370.02 5474.06 1895.95 3247.24 2226.83 1186.35 1081.94 2009.51 709.601 1278.64 1040.96 1237.73 1185.87 814.075 730.869 849.643 645.285 769.54 436.657 735.052 280.006 594.694 371.796 699.646 440.884 333.228 538.084 304.939 360.947 104.412
internal_count=350824 129078 221746 104696 24382 116268 108588 70211 105478 23552 10256 34485 14126 8283 46659 12729 27766 7913 80822 8107 9489 93440 5843 24970 17520 3470 9515 4499 6549 7680
is_linear=0
shrinkage=0.05


Tree=26
num_leaves=31
num_cat=0
split_feature=13 7 4 9 9 9 7 13 0 4 4 5 3 7 12 13 9 0 4 4 1 9 3 4 13 5 0 9 13 9
split_gain=727.137 167.265 122.452 47.1337 32.8103 25.6063 20.8547 20.0091 19.8496 17.2355 15.8227 19.251 9.96059 9.76868 9.63445 8.4645 8.12936 7.74415 7.12606 6.70309 6.6399 6.1134 5.83369 8.11401 5.77464 5.51854 5.37702 5.36718 5.06513 4.99172
threshold=0.27712862602125649 1.0734970997523565 3.7462446805512504 1.1416426023819819 0.068296863758220847 1.1416426023819819 1.3132626908219074 2.0931670216750784 356.50000000000006 4.1362718491556167 4.0465739121989133 0.90842758399389212 718.50000000000011 -0.33030694559720658 1.651988149771437 -0.33389060032605394 0.78393239054567421 472.50000000000006 4.2803779414177141 4.5583752382751301 3.6094095243878175 0.085892194045595824 1169.0000000000002 4.4568058211502484 2.9741727069211916 0.77912838985850608 36.500000000000007 1.8106135593528572 0.52694518021746772 0.11332483642693199
decision_type=2 2 2 2 2 2 2 2 2 2 2 2 2 2 2 2 2 2 2 2 2 2 2 2 2 2 2 2 2 2
left_child=2 5 4 6 13 10 20 19 9 15 11 25 18 -1 17 -4 -6 -8 -12 -5 -3 -10 23 -11 -9 -2 -18 -7 -13 -17
right_child=1 3 8 7 16 27 14 24 21 22 12 28 -14 -15 -16 29 26 -19 -20 -21 -22 -23 -24 -25 -26 -27 -28 -29 -30 -31
leaf_value=-0.046658751002828416 -0.017875183412408215 0.00013656114383115746 -0.027426470112773028 0.018773974435693456 -0.028070301151303143 0.0071845633273293578 0.018914050960663856 0.031266264745055998 -0.03093438798670993 -0.00060729640993823278 0.0030606262575488931 -0.008224161862934138 -0.0023058571366745086 -0.033628245993506882 0.029525361863820154 -0.01872092333393768 0.047081266503730582 0.008919856670086981 0.020757911228222629 0.029879559949482742 0.01003032319851095 -0.017161198137643965 -0.0084405728596356269 0.021674715316059589 0.045897577295991504 -0.0080615068704970854 -0.012747231863781065 0.021867046974897275 0.012256740418380247 -0.0061518388452932692
leaf_weight=487.82997075372259 298.14567270544649 291.15030106785707 103.88389997254126 703.64168043335667 288.92788288572046 456.07546850934159 523.73619487427641 332.42959423782304 138.78312471784011 164.64244208717719 153.584290615996 41.258262037677923 622.18780845384754 203.96933826482564 137.00211645290256 129.78153902117629 3.965771651826798 307.7080883331364 90.341523985320237 168.38834061590023 406.13876144218375 192.06230664807663 130.2602699068957 54.342399065673817 84.598826298024505 275.73736786797235 70.822723989404039 72.07949586387258 112.50686838124238 201.84693168359809
leaf_count=84241 19056 5759 5143 10191 33333 15004 4822 2513 21249 4162 6974 2768 19706 29366 1318 6049 53 4861 2138 1510 7266 22529 3073 716 525 14458 8391 1748 4482 7420
internal_value=-1.48196e-11 0.0103568 -0.0242172 0.0180478 -0.0364249 -0.000353009 0.0124925 0.0252263 -0.012667 -0.0083365 -0.00351491 -0.00895022 0.00105147 -0.0428169 0.0172397 -0.0149721 -0.0242672 0.0152153 0.00961508 0.0209185 0.00589922 -0.0229388 -6.18535e-05 0.00492212 0.0342344 -0.0131599 -0.00957474 0.00918834 0.0067613 -0.0110707
internal_weight=7247.83 5076.71 2171.12 2954.79 1055.52 2121.92 1665.74 1289.06 1115.6 784.757 1593.76 727.648 866.114 691.799 968.446 435.512 363.716 831.444 243.926 872.03 697.289 330.845 349.245 218.985 417.028 573.883 74.7885 528.155 153.765 331.628
internal_count=350824 125099 225725 38765 155384 86334 24026 14739 70341 26563 69582 40764 28818 113607 11001 18612 41777 9683 9112 11701 13025 43778 7951 4878 3038 33514 8444 16752 7250 13469
is_linear=0
shrinkage=0.05


Tree=27
num_leaves=31
num_cat=0
split_feature=14 14 13 13 13 9 9 14 9 9 13 10 14 12 9 13 3 9 14 13 7 7 12 7 12 11 5 12 2 3
split_gain=670.072 155.413 94.3888 43.0504 31.0048 24.7944 20.4454 18.3686 17.4347 12.7418 12.0846 10.3626 9.30079 8.86237 8.62452 8.07445 8.44054 7.59219 6.82634 6.13869 6.10417 5.71913 4.96487 4.50763 4.50463 4.50363 4.47994 4.4254 4.15026 4.1376
threshold=0.54295498890861027 1.2909753252599945 -0.27545695208200444 0.64794824328052525 2.1924537536256659 0.35643499291442876 1.1416426023819819 -0.5185308464905144 1.3705925169387383 0.12200231378830105 2.1924537536256659 0.7431221698189131 0.2053177068628915 -0.50876882510869159 1.4154659794051832 0.43142497934138296 1002.5000000000001 -1.0000000180025095e-35 1.0396943708048652 0.9885542368790089 1.5582358385899562 1.0734970997523565 1.3382636222720763 0.29592123872915915 -0.48753286580231264 0.82010886439504171 0.77744692593177456 1.9234464004550247 0.685584609666398 1039.0000000000002
decision_type=2 2 2 2 2 2 2 2 2 2 2 2 2 2 2 2 2 2 2 2 2 2 2 2 2 2 2 2 2 2
left_child=2 3 7 9 8 12 10 17 15 25 13 20 23 -5 19 28 -17 -1 -11 29 22 -8 -6 -4 -20 -2 -14 -23 -3 -7
right_child=1 4 5 6 11 14 21 -9 -10 18 -12 -13 26 -15 -16 16 -18 -19 24 -21 -22 27 -24 -25 -26 -27 -28 -29 -30 -31
leaf_value=-0.048119319617471484 -0.015716314789165523 -0.051431012447866215 -0.03051143919100956 -0.0041886615100121928 0.013319055983745678 -0.0077335942320920338 0.0089849481801077095 -0.029065077381885737 0.025552759193239512 -0.0041686900287032256 0.016960116191585266 0.041353614178279603 -0.02089902494986301 0.0049586011756686966 0.012476245574149865 0.02190465459466881 0.01136845444163477 -0.033045019358597265 -0.0031315139923349614 0.0046068191923146189 0.032059678030584932 0.016430733813347601 0.034476872344295216 -0.016016593056439803 0.010871885056126032 -0.0017721826787358082 -0.0082522890191448813 0.03434969210822348 0.0031306010745797207 -0.017876004515257074
leaf_weight=358.7650870722282 271.62554259551689 3.5847979891113928 291.44578117373749 389.05099893035367 110.72504271194339 234.97930489541613 297.83889137837104 320.14863332668756 410.5091549041681 625.16786662225786 152.66481066792039 171.09119683224708 173.77817836523172 829.07099559354538 47.669815444358392 292.10509900812758 544.23280344251543 108.8769255673833 91.420592296752147 63.71016194135882 197.19379287911579 359.58728010341292 36.990047220140696 65.734032579683117 154.45691070868634 73.59443068834662 117.28741172693844 38.107659604866058 125.57712641824037 175.77636922909005
leaf_count=66060 11940 104 39950 13755 964 24504 7972 38905 4396 29123 1906 1142 15537 17899 2843 3863 6257 13743 2836 2446 1365 5789 319 6570 2852 3348 9180 439 1852 12965
internal_value=5.8362e-11 0.00942733 -0.0249123 0.0028488 0.0208409 -0.015906 0.00724185 -0.0382926 0.0169214 -0.00461458 0.00369907 0.0312931 -0.0224374 0.00203709 -0.00779715 0.0132515 0.0150484 -0.0446097 -0.00139278 -0.00983403 0.0263027 0.0142241 0.0186173 -0.0278439 0.00566523 -0.0127437 -0.0158029 0.0181478 0.00161628 -0.0120739
internal_weight=7132.77 5174.6 1958.17 3282.59 1892.01 1170.38 2066.32 787.791 1376.01 1216.27 1370.79 516 648.245 1218.12 522.136 965.5 836.338 467.642 871.045 474.466 344.909 695.534 147.715 357.18 245.878 345.22 291.066 397.695 129.162 410.756
internal_count=350824 118121 232703 97859 20262 113995 47760 118708 16472 50099 33560 3790 71237 31654 42758 12076 10120 79803 34811 39915 2648 14200 1283 46520 5688 15288 24717 6228 1956 37469
is_linear=0
shrinkage=0.05


Tree=28
num_leaves=31
num_cat=0
split_feature=14 14 14 9 9 9 9 0 7 4 9 4 0 14 14 10 4 5 10 9 5 5 5 4 9 1 1 0 10 11
